{"learner":{"attributes":{"best_iteration":"120","best_score":"0.5477617223186694"},"feature_names":["num_games_owned","num_reviews","days_since_launch","review_weekday","review_hour","language_cleaned","price_usd","log_price","is_sale","time_since_update","review_updated","steam_purchase","received_for_free","playtime_hours","days_since_last_played"],"feature_types":["int","int","int","int","int","c","float","float","int","int","int","int","int","float","int"],"gradient_booster":{"model":{"gbtree_model_param":{"num_parallel_tree":"1","num_trees":"141"},"iteration_indptr":[0,1,2,3,4,5,6,7,8,9,10,11,12,13,14,15,16,17,18,19,20,21,22,23,24,25,26,27,28,29,30,31,32,33,34,35,36,37,38,39,40,41,42,43,44,45,46,47,48,49,50,51,52,53,54,55,56,57,58,59,60,61,62,63,64,65,66,67,68,69,70,71,72,73,74,75,76,77,78,79,80,81,82,83,84,85,86,87,88,89,90,91,92,93,94,95,96,97,98,99,100,101,102,103,104,105,106,107,108,109,110,111,112,113,114,115,116,117,118,119,120,121,122,123,124,125,126,127,128,129,130,131,132,133,134,135,136,137,138,139,140,141],"tree_info":[0,0,0,0,0,0,0,0,0,0,0,0,0,0,0,0,0,0,0,0,0,0,0,0,0,0,0,0,0,0,0,0,0,0,0,0,0,0,0,0,0,0,0,0,0,0,0,0,0,0,0,0,0,0,0,0,0,0,0,0,0,0,0,0,0,0,0,0,0,0,0,0,0,0,0,0,0,0,0,0,0,0,0,0,0,0,0,0,0,0,0,0,0,0,0,0,0,0,0,0,0,0,0,0,0,0,0,0,0,0,0,0,0,0,0,0,0,0,0,0,0,0,0,0,0,0,0,0,0,0,0,0,0,0,0,0,0,0,0,0,0],"trees":[{"base_weights":[-1.4942301E-3,-6.365885E-1,5.6548816E-1,-1.4350928E0,-4.8271886E-1,-4.7604844E-1,7.4623924E-1,-1.5452774E0,-1.2627531E0,-3.0955786E-1,-1.0185981E0,-7.326092E-1,3.4407827E-1,8.563669E-1,4.1949928E-1,-1.4432744E0,-1.6437044E0,-1.0031127E0,-1.3382508E0,-7.194984E-2,-9.2199945E-1,-1.1600938E0,-5.291057E-1,-9.76689E-1,-2.5575715E-1,5.16658E-1,2.0530221E-1,1.213979E0,7.5223356E-1,7.503958E-1,3.63869E-1,-1.6999793E0,-1.3431171E0,-1.6494788E0,-4.3889683E-1,-1.3314831E0,-8.850173E-1,-1.3482279E0,-1.3129261E-1,-3.433724E-1,8.177972E-2,-1.3384801E0,-7.415657E-1,-1.0410805E0,-1.4102206E0,-1.184143E-1,-5.764705E-1,-8.1424147E-1,-1.2072152E0,2.7063146E-1,-3.6858866E-1,5.846022E-1,-3.818634E-2,6.7869976E-2,3.8860604E-1,1.4724513E0,1.106348E0,7.0715916E-1,1.3256603E0,9.683388E-1,6.551601E-1,4.482595E-1,1.5006115E-1,-1.7690544E-1,-1.5511474E-1,-9.445328E-2,-1.4177984E-1,-1.7133622E-1,-1.556826E-1,-8.7073766E-2,9.536312E-3,-1.4377527E-1,-2.5858626E-2,-3.0287638E-2,-9.85082E-2,-1.2970133E-1,-1.5442699E-1,-7.8222364E-2,5.3671658E-2,-5.886199E-2,-1.7610988E-2,5.3117163E-2,-2.2019198E-2,-1.3701932E-1,-7.6320246E-2,-5.6752294E-2,-9.179237E-2,-9.82312E-2,-1.450833E-1,-1.2463142E-1,-1.4870793E-1,2.646688E-2,-3.811265E-2,-6.2306263E-2,-2.793822E-2,-8.633255E-2,-2.1602392E-2,-1.2977605E-1,-9.673213E-2,9.492662E-3,7.4458435E-2,-5.6197852E-2,-6.544514E-3,7.8314476E-2,4.2746183E-2,-1.0674069E-1,1.150798E-2,8.832192E-3,-1.13069154E-1,1.1588152E-2,5.992526E-2,1.284984E-1,1.539247E-1,1.04796484E-1,1.6121852E-1,8.358279E-2,5.9266757E-2,1.4467523E-1,9.345526E-2,6.247148E-2,1.0725818E-1,7.161886E-2,3.4183014E-2,3.9905604E-2,9.494474E-2,3.7184022E-3,5.6087147E-2],"categories":[1,4,1,2,3,6,4,6,8,1,2,3,4,7,8,10,1,2,3,6,8,1,2,3,6,8,10,1,2,3,4,5,6,8,1,2,3,8,1,2,3,6,7,8,10,1,2,3,4,5,6,7,8,10,0,3,4,5,6,7,8,9,10],"categories_nodes":[7,8,9,12,13,14,22,23,24,27,57],"categories_segments":[0,2,6,9,16,21,27,34,38,45,54],"categories_sizes":[2,4,3,7,5,6,7,4,7,9,9],"default_left":[0,0,0,0,0,0,0,1,1,1,0,0,1,1,1,0,0,0,0,0,0,0,1,1,1,0,0,1,0,0,0,0,0,0,0,0,0,0,0,0,0,0,0,0,0,0,0,0,0,0,0,0,0,0,0,0,0,1,0,0,0,0,0,0,0,0,0,0,0,0,0,0,0,0,0,0,0,0,0,0,0,0,0,0,0,0,0,0,0,0,0,0,0,0,0,0,0,0,0,0,0,0,0,0,0,0,0,0,0,0,0,0,0,0,0,0,0,0,0,0,0,0,0,0,0,0,0],"id":0,"left_children":[1,3,5,7,9,11,13,15,17,19,21,23,25,27,29,31,33,35,37,39,41,43,45,47,49,51,53,55,57,59,61,63,65,67,69,71,73,75,77,79,81,83,85,87,89,91,93,95,97,99,101,103,105,107,109,111,113,115,117,119,121,123,125,-1,-1,-1,-1,-1,-1,-1,-1,-1,-1,-1,-1,-1,-1,-1,-1,-1,-1,-1,-1,-1,-1,-1,-1,-1,-1,-1,-1,-1,-1,-1,-1,-1,-1,-1,-1,-1,-1,-1,-1,-1,-1,-1,-1,-1,-1,-1,-1,-1,-1,-1,-1,-1,-1,-1,-1,-1,-1,-1,-1,-1,-1,-1,-1],"loss_changes":[1.9349957E4,3.113459E3,5.3451826E3,7.5799805E1,1.9717773E3,8.837798E2,8.7017285E2,2.2658203E1,3.0066895E1,2.337537E3,3.5883838E2,3.7205518E2,2.3873924E1,6.728672E2,1.1202588E2,2.9406494E1,8.053223E0,1.2974213E1,1.4735352E1,4.829862E2,3.3642383E2,1.1835596E2,2.2605957E1,7.823694E1,6.450201E1,1.6821342E1,1.399641E1,1.1184033E2,3.6131738E2,1.757016E1,9.420062E1,7.736206E-1,2.5194336E1,4.762207E0,1.7858037E0,1.0408737E1,1.55112915E1,1.0327637E1,5.31633E0,1.7158527E2,1.00299176E3,2.3692871E1,9.570642E1,6.4345215E1,1.4459717E1,1.2357811E1,1.4288574E1,3.6341736E1,1.7694458E1,1.5916409E1,5.233629E1,1.2053162E1,7.939693E0,7.9277353E0,1.3620701E1,1.2999512E1,8.347266E1,1.9095752E2,4.6967285E1,8.808823E0,1.1485687E1,9.198511E1,6.861063E1,0E0,0E0,0E0,0E0,0E0,0E0,0E0,0E0,0E0,0E0,0E0,0E0,0E0,0E0,0E0,0E0,0E0,0E0,0E0,0E0,0E0,0E0,0E0,0E0,0E0,0E0,0E0,0E0,0E0,0E0,0E0,0E0,0E0,0E0,0E0,0E0,0E0,0E0,0E0,0E0,0E0,0E0,0E0,0E0,0E0,0E0,0E0,0E0,0E0,0E0,0E0,0E0,0E0,0E0,0E0,0E0,0E0,0E0,0E0,0E0,0E0,0E0,0E0,0E0],"parents":[2147483647,0,0,1,1,2,2,3,3,4,4,5,5,6,6,7,7,8,8,9,9,10,10,11,11,12,12,13,13,14,14,15,15,16,16,17,17,18,18,19,19,20,20,21,21,22,22,23,23,24,24,25,25,26,26,27,27,28,28,29,29,30,30,31,31,32,32,33,33,34,34,35,35,36,36,37,37,38,38,39,39,40,40,41,41,42,42,43,43,44,44,45,45,46,46,47,47,48,48,49,49,50,50,51,51,52,52,53,53,54,54,55,55,56,56,57,57,58,58,59,59,60,60,61,61,62,62],"right_children":[2,4,6,8,10,12,14,16,18,20,22,24,26,28,30,32,34,36,38,40,42,44,46,48,50,52,54,56,58,60,62,64,66,68,70,72,74,76,78,80,82,84,86,88,90,92,94,96,98,100,102,104,106,108,110,112,114,116,118,120,122,124,126,-1,-1,-1,-1,-1,-1,-1,-1,-1,-1,-1,-1,-1,-1,-1,-1,-1,-1,-1,-1,-1,-1,-1,-1,-1,-1,-1,-1,-1,-1,-1,-1,-1,-1,-1,-1,-1,-1,-1,-1,-1,-1,-1,-1,-1,-1,-1,-1,-1,-1,-1,-1,-1,-1,-1,-1,-1,-1,-1,-1,-1,-1,-1,-1],"split_conditions":[2.1E2,3E0,2.8833334E0,1.45E0,5.1E1,1E0,1E0,1E-45,1E-45,1E-45,1.5E2,1.45E0,1E-45,1E-45,1E-45,3E0,1.36E2,5E0,2.06E2,5E0,2E0,8.3E1,1E-45,1E-45,1E-45,8.9E2,5.999E1,1E-45,7.33E2,3.959E1,7.51E2,9.6666664E-1,1.2E1,1E0,7.3E1,4.3E1,1.3E1,3.9E1,2E0,5E0,1.2E1,5.845E1,1.3E1,4.2E1,6.9E1,1.9616667E1,2.06E2,7.26E2,9.6666664E-1,6.95E2,2.2E0,1.3E1,2.55E2,1.091E3,2.8E1,4.86E2,7.3E2,1E-45,7.39E2,1E0,7.54E2,7.3E2,1.091E3,-1.7690544E-1,-1.5511474E-1,-9.445328E-2,-1.4177984E-1,-1.7133622E-1,-1.556826E-1,-8.7073766E-2,9.536312E-3,-1.4377527E-1,-2.5858626E-2,-3.0287638E-2,-9.85082E-2,-1.2970133E-1,-1.5442699E-1,-7.8222364E-2,5.3671658E-2,-5.886199E-2,-1.7610988E-2,5.3117163E-2,-2.2019198E-2,-1.3701932E-1,-7.6320246E-2,-5.6752294E-2,-9.179237E-2,-9.82312E-2,-1.450833E-1,-1.2463142E-1,-1.4870793E-1,2.646688E-2,-3.811265E-2,-6.2306263E-2,-2.793822E-2,-8.633255E-2,-2.1602392E-2,-1.2977605E-1,-9.673213E-2,9.492662E-3,7.4458435E-2,-5.6197852E-2,-6.544514E-3,7.8314476E-2,4.2746183E-2,-1.0674069E-1,1.150798E-2,8.832192E-3,-1.13069154E-1,1.1588152E-2,5.992526E-2,1.284984E-1,1.539247E-1,1.04796484E-1,1.6121852E-1,8.358279E-2,5.9266757E-2,1.4467523E-1,9.345526E-2,6.247148E-2,1.0725818E-1,7.161886E-2,3.4183014E-2,3.9905604E-2,9.494474E-2,3.7184022E-3,5.6087147E-2],"split_indices":[2,13,13,13,2,9,9,5,5,5,2,13,5,5,5,2,9,2,2,2,2,0,5,5,5,2,6,5,2,6,2,13,2,11,0,1,2,2,13,1,2,13,2,9,2,13,2,2,13,2,13,1,9,2,0,2,2,5,2,11,9,2,2,0,0,0,0,0,0,0,0,0,0,0,0,0,0,0,0,0,0,0,0,0,0,0,0,0,0,0,0,0,0,0,0,0,0,0,0,0,0,0,0,0,0,0,0,0,0,0,0,0,0,0,0,0,0,0,0,0,0,0,0,0,0,0,0],"split_type":[0,0,0,0,0,0,0,1,1,1,0,0,1,1,1,0,0,0,0,0,0,0,1,1,1,0,0,1,0,0,0,0,0,0,0,0,0,0,0,0,0,0,0,0,0,0,0,0,0,0,0,0,0,0,0,0,0,1,0,0,0,0,0,0,0,0,0,0,0,0,0,0,0,0,0,0,0,0,0,0,0,0,0,0,0,0,0,0,0,0,0,0,0,0,0,0,0,0,0,0,0,0,0,0,0,0,0,0,0,0,0,0,0,0,0,0,0,0,0,0,0,0,0,0,0,0,0],"sum_hessian":[5.373485E4,2.534501E4,2.8389842E4,4.0935037E3,2.1251508E4,4.1980293E3,2.4191812E4,2.4921758E3,1.6013278E3,1.6062681E4,5.188826E3,3.1977742E3,1.00025507E3,1.8092215E4,6.099598E3,1.2315477E3,1.2606282E3,3.6395468E2,1.2373732E3,1.15736045E4,4.489076E3,4.024197E3,1.1646294E3,2.1144377E3,1.0833365E3,4.446154E2,5.556397E2,4.0777712E3,1.4014443E4,8.760777E2,5.2235205E3,3.411641E2,8.9038367E2,1.2542478E3,6.380386E0,9.355248E1,2.704022E2,1.2271124E3,1.0260772E1,4.184421E3,7.3891836E3,1.3550062E3,3.1340698E3,2.730266E3,1.2939309E3,1.2078921E2,1.0438402E3,1.2430297E3,8.7140796E2,1.9097758E2,8.92359E2,3.9606152E2,4.855386E1,3.183367E2,2.37303E2,1.1950983E3,2.882673E3,1.2995187E4,1.01925745E3,2.6362177E2,6.1245593E2,3.7444717E3,1.479049E3,2.2558205E2,1.1558204E2,1.4265607E2,7.477276E2,7.3202844E2,5.222193E2,3.1801102E0,3.2002757E0,8.4811874E1,8.740606E0,4.0252758E1,2.3014943E2,9.7897784E2,2.4813452E2,5.1102204E0,5.1505513E0,1.695657E3,2.488764E3,2.9693948E3,4.419789E3,1.2829027E3,7.2103584E1,1.5795117E3,1.5545581E3,2.3907686E3,3.394975E2,4.1855273E2,8.753781E2,4.913452E1,7.1654686E1,9.013803E2,1.4245993E2,1.1483629E3,9.466684E1,6.2942786E2,2.4198009E2,1.402019E2,5.077568E1,5.442817E2,3.480773E2,1.7321957E2,2.2284195E2,5.5201654E0,4.3033695E1,3.139066E2,4.4301105E0,1.04088936E2,1.3321407E2,3.1927255E2,8.7582574E2,2.5871396E3,2.9553333E2,6.115793E3,6.879393E3,7.762285E2,2.4302895E2,6.298673E1,2.0063503E2,5.1153635E2,1.0091959E2,3.4113618E3,3.3310986E2,1.1611058E3,3.1794302E2],"tree_param":{"num_deleted":"0","num_feature":"15","num_nodes":"127","size_leaf_vector":"1"}},{"base_weights":[8.320849E-4,-5.7797E-1,5.170491E-1,-4.3462673E-1,-1.5553209E0,7.165798E-1,-9.537242E-1,-1.1252774E0,-3.4898344E-1,-1.6863202E0,-1.4399321E0,5.8792517E-2,7.9313546E-1,-3.5667104E-1,-1.0811167E0,-1.2401783E0,-9.773456E-1,-2.1016166E-1,-8.071988E-1,-1.76683E-1,-1.6177067E0,-1.1347685E0,-1.6149684E0,-1.9474667E-1,6.021314E-1,8.8316923E-1,5.123667E-1,-8.875409E-1,-3.650992E-2,-1.4317254E0,-7.329709E-1,-1.27342E0,-8.252936E-1,-1.1955525E0,-8.425639E-1,-6.5592915E-1,-7.113085E-2,-9.392802E-1,-3.8378465E-1,-1.3661064E0,-1.6844828E0,-9.031144E-1,-1.3675503E0,-1.5284227E0,-1.7821136E-1,-5.977103E-1,8.816313E-2,6.990406E-1,3.9995092E-1,5.6511647E-1,9.3843025E-1,6.988121E-1,3.7518418E-1,-9.599712E-1,-3.5709366E-1,3.3687264E-2,-4.3637186E-1,-1.5360997E0,-1.237075E0,-9.9055904E-1,-2.987706E-1,-1.3908316E-1,-1.19984664E-1,-3.6377694E-2,-9.7528115E-2,-1.140007E-1,-1.4102136E-1,-2.7605763E-2,-9.97655E-2,-4.5127288E-2,-8.098894E-2,-9.017827E-4,-7.037272E-2,-8.114705E-2,-1.2137131E-1,-1.8187722E-2,-7.084001E-2,-1.4470805E-1,-1.10841945E-1,-1.7520322E-1,-1.6125484E-1,-1.14048354E-1,-4.102784E-2,-1.5393756E-1,-1.1863077E-1,-1.5593596E-1,-1.0662766E-1,-8.502172E-2,-3.4033846E-2,-3.2206166E-3,4.1045338E-2,1.12188775E-2,7.3232114E-2,1.7824909E-2,7.7306174E-2,7.9835474E-2,3.6571603E-2,1.0736302E-1,8.072024E-2,2.8907452E-2,7.4908555E-2,3.244355E-2,9.156969E-2,-1.0385455E-1,-5.8188893E-2,-1.0214581E-2,-8.328346E-2,2.1933721E-2,-6.7934147E-3,4.3163422E-2,-6.460681E-2,-1.4843528E-1,-1.6377036E-1,-9.79399E-2,-1.4151432E-1,-1.3403903E-1,-7.8409545E-2,-5.9853435E-2,-1.3104192E-2],"categories":[],"categories_nodes":[],"categories_segments":[],"categories_sizes":[],"default_left":[0,0,0,0,0,0,0,0,0,0,0,0,0,0,0,0,0,0,0,0,0,0,0,0,0,0,0,0,0,0,0,0,0,0,0,0,0,0,0,0,0,0,0,0,0,0,0,0,0,0,0,0,0,0,0,0,0,0,0,0,0,0,0,0,0,0,0,0,0,0,0,0,0,0,0,0,0,0,0,0,0,0,0,0,0,0,0,0,0,0,0,0,0,0,0,0,0,0,0,0,0,0,0,0,0,0,0,0,0,0,0,0,0,0,0,0,0,0,0],"id":1,"left_children":[1,3,5,7,9,11,13,15,17,19,21,23,25,27,29,31,33,35,37,-1,39,41,43,45,47,49,51,53,55,57,59,61,63,65,67,69,71,73,75,77,79,81,83,85,-1,87,89,91,93,95,97,99,101,103,105,107,109,111,113,115,117,-1,-1,-1,-1,-1,-1,-1,-1,-1,-1,-1,-1,-1,-1,-1,-1,-1,-1,-1,-1,-1,-1,-1,-1,-1,-1,-1,-1,-1,-1,-1,-1,-1,-1,-1,-1,-1,-1,-1,-1,-1,-1,-1,-1,-1,-1,-1,-1,-1,-1,-1,-1,-1,-1,-1,-1,-1,-1],"loss_changes":[1.6098469E4,3.5577734E3,8.358369E3,1.3099214E3,4.667383E1,1.2628076E3,2.5840967E2,4.03208E1,1.2535913E3,5.513672E0,9.078613E1,3.6041736E2,5.673916E2,1.0191493E2,3.4117798E2,1.7865234E1,3.0547607E1,9.3754584E2,2.559209E2,0E0,1.1644043E1,3.302893E1,1.3181885E1,2.0344067E2,1.6029633E1,2.9839746E2,1.3930334E2,8.325272E0,1.0546451E1,2.6458496E1,1.5727515E2,9.284424E0,6.884636E0,3.2486572E0,5.8295258E1,1.1295764E2,4.5315054E2,1.2150781E2,7.139755E1,2.1390076E0,3.413086E-1,3.713275E1,7.9831543E0,8.795288E0,0E0,4.7543396E1,4.0709717E1,1.0881439E1,2.2365547E1,1.1691431E2,2.5618945E2,4.7405396E1,8.599335E1,5.2751923E0,3.3956146E0,6.0539665E0,1.0490763E1,2.324707E0,2.1205322E1,6.278528E1,2.6369007E1,0E0,0E0,0E0,0E0,0E0,0E0,0E0,0E0,0E0,0E0,0E0,0E0,0E0,0E0,0E0,0E0,0E0,0E0,0E0,0E0,0E0,0E0,0E0,0E0,0E0,0E0,0E0,0E0,0E0,0E0,0E0,0E0,0E0,0E0,0E0,0E0,0E0,0E0,0E0,0E0,0E0,0E0,0E0,0E0,0E0,0E0,0E0,0E0,0E0,0E0,0E0,0E0,0E0,0E0,0E0,0E0,0E0,0E0],"parents":[2147483647,0,0,1,1,2,2,3,3,4,4,5,5,6,6,7,7,8,8,9,9,10,10,11,11,12,12,13,13,14,14,15,15,16,16,17,17,18,18,20,20,21,21,22,22,23,23,24,24,25,25,26,26,27,27,28,28,29,29,30,30,31,31,32,32,33,33,34,34,35,35,36,36,37,37,38,38,39,39,40,40,41,41,42,42,43,43,45,45,46,46,47,47,48,48,49,49,50,50,51,51,52,52,53,53,54,54,55,55,56,56,57,57,58,58,59,59,60,60],"right_children":[2,4,6,8,10,12,14,16,18,20,22,24,26,28,30,32,34,36,38,-1,40,42,44,46,48,50,52,54,56,58,60,62,64,66,68,70,72,74,76,78,80,82,84,86,-1,88,90,92,94,96,98,100,102,104,106,108,110,112,114,116,118,-1,-1,-1,-1,-1,-1,-1,-1,-1,-1,-1,-1,-1,-1,-1,-1,-1,-1,-1,-1,-1,-1,-1,-1,-1,-1,-1,-1,-1,-1,-1,-1,-1,-1,-1,-1,-1,-1,-1,-1,-1,-1,-1,-1,-1,-1,-1,-1,-1,-1,-1,-1,-1,-1,-1,-1,-1,-1],"split_conditions":[2.1E2,0E0,-1E0,3E0,3E1,2.8833334E0,0E0,1.45E0,5.1E1,5E0,3.9E1,1E0,1E0,3.2833333E0,1E0,1E0,5E0,2E0,1.5E2,-1.76683E-1,1E1,2E0,1.2316667E1,9.6666664E-1,-2.26E2,3.64E2,-4.34E2,7.09E2,1.64E2,3.5833333E0,6.93E2,5E0,1.2E1,-3.9E1,1.3E1,-8.59E2,1E0,8.3E1,-6.37E2,5E0,4E0,1.8E1,1.8166667E0,1E0,-1.7821136E-1,4.92E2,6.95E2,2.56E2,5.71E2,-6.99E2,-4E2,2.77E2,1.091E3,6E0,1.6E1,7.5333333E0,1.499E1,9.6E1,2.699E1,3.81E2,4.45E0,-1.3908316E-1,-1.19984664E-1,-3.6377694E-2,-9.7528115E-2,-1.140007E-1,-1.4102136E-1,-2.7605763E-2,-9.97655E-2,-4.5127288E-2,-8.098894E-2,-9.017827E-4,-7.037272E-2,-8.114705E-2,-1.2137131E-1,-1.8187722E-2,-7.084001E-2,-1.4470805E-1,-1.10841945E-1,-1.7520322E-1,-1.6125484E-1,-1.14048354E-1,-4.102784E-2,-1.5393756E-1,-1.1863077E-1,-1.5593596E-1,-1.0662766E-1,-8.502172E-2,-3.4033846E-2,-3.2206166E-3,4.1045338E-2,1.12188775E-2,7.3232114E-2,1.7824909E-2,7.7306174E-2,7.9835474E-2,3.6571603E-2,1.0736302E-1,8.072024E-2,2.8907452E-2,7.4908555E-2,3.244355E-2,9.156969E-2,-1.0385455E-1,-5.8188893E-2,-1.0214581E-2,-8.328346E-2,2.1933721E-2,-6.7934147E-3,4.3163422E-2,-6.460681E-2,-1.4843528E-1,-1.6377036E-1,-9.79399E-2,-1.4151432E-1,-1.3403903E-1,-7.8409545E-2,-5.9853435E-2,-1.3104192E-2],"split_indices":[2,14,14,13,2,13,14,13,2,2,2,9,9,13,14,9,2,2,2,0,2,3,13,13,14,2,14,2,0,13,2,2,2,14,2,14,9,0,14,14,0,4,13,12,0,2,2,2,9,14,14,2,2,3,4,13,6,0,6,2,13,0,0,0,0,0,0,0,0,0,0,0,0,0,0,0,0,0,0,0,0,0,0,0,0,0,0,0,0,0,0,0,0,0,0,0,0,0,0,0,0,0,0,0,0,0,0,0,0,0,0,0,0,0,0,0,0,0,0],"split_type":[0,0,0,0,0,0,0,0,0,0,0,0,0,0,0,0,0,0,0,0,0,0,0,0,0,0,0,0,0,0,0,0,0,0,0,0,0,0,0,0,0,0,0,0,0,0,0,0,0,0,0,0,0,0,0,0,0,0,0,0,0,0,0,0,0,0,0,0,0,0,0,0,0,0,0,0,0,0,0,0,0,0,0,0,0,0,0,0,0,0,0,0,0,0,0,0,0,0,0,0,0,0,0,0,0,0,0,0,0,0,0,0,0,0,0,0,0,0,0],"sum_hessian":[5.387733E4,2.5398945E4,2.8478383E4,2.2151531E4,3.247413E3,2.5076871E4,3.4015112E3,2.4424905E3,1.9709041E4,1.5144573E3,1.7329558E3,2.6144624E3,2.2462408E4,5.988177E2,2.8026936E3,1.370567E3,1.0719236E3,1.5127457E4,4.581584E3,6.854329E2,8.2902435E2,6.3440265E2,1.0985532E3,1.7830679E3,8.3139453E2,1.7006736E4,5.4556724E3,2.2461081E2,3.7420688E2,1.3948566E3,1.4078369E3,1.2669839E3,1.0358312E2,4.0628754E2,6.6563605E2,3.5955396E3,1.1531917E4,3.491282E3,1.0903019E3,1.7837973E2,6.5064465E2,3.2041718E2,3.1398547E2,7.3046924E2,3.6808392E2,7.350227E2,1.048045E3,5.6035E2,2.7104456E2,2.5191416E3,1.4487595E4,2.3108677E3,3.1448044E3,1.969134E2,2.7697416E1,3.19103E2,5.5103905E1,9.0349744E2,4.9135916E2,8.828231E2,5.2501385E2,4.8118442E2,7.857994E2,2.6246658E1,7.7336464E1,3.2778195E2,7.85056E1,1.436609E2,5.2197516E2,1.5453148E3,2.0502249E3,1.0501788E4,1.0301294E3,2.3846519E3,1.1066301E3,6.7316223E2,4.1713962E2,1.3221693E2,4.6162785E1,3.2350455E2,3.2714008E2,2.1537164E2,1.0504555E2,1.5733351E2,1.5665198E2,6.824132E2,4.805604E1,3.698553E2,3.6516745E2,7.637129E2,2.843322E2,3.0306772E1,5.300432E2,1.7094629E2,1.00098274E2,1.1596718E3,1.3594697E3,7.1322656E3,7.355329E3,2.5328636E2,2.0575813E3,2.8763447E3,2.6845966E2,1.6158534E2,3.5328064E1,1.8824268E1,8.873148E0,1.12471985E2,2.06631E2,1.0516024E1,4.4587883E1,6.089619E2,2.9453546E2,2.0345168E2,2.8790747E2,3.2561322E2,5.572099E2,1.8744493E2,3.375689E2],"tree_param":{"num_deleted":"0","num_feature":"15","num_nodes":"119","size_leaf_vector":"1"}},{"base_weights":[4.3964568E-3,-5.2014923E-1,4.7031665E-1,-1.1783379E0,-3.935854E-1,-4.585827E-1,6.0735506E-1,-1.2766006E0,-1.0269761E0,-2.3548602E-1,-8.307827E-1,-6.912646E-1,2.9266652E-1,1.0242548E0,5.4125935E-1,-1.2937657E0,-8.7050724E-1,-6.789324E-1,-1.0755419E0,-2.8877495E-2,-8.075791E-1,-1.1460056E0,-7.3216814E-1,-8.92231E-1,-4.4613555E-1,4.278074E-1,1.7314436E-1,1.1092892E0,7.022449E-1,6.265821E-1,2.9909244E-1,-1.203324E0,-1.3695054E0,-9.0954375E-1,-1.3082575E-3,-8.8042027E-1,-3.0970034E-1,-1.219912E0,-9.9697775E-1,-2.5686887E-1,1.01801634E-1,-9.057527E-1,-4.5477152E-1,-1.1938076E0,-8.9761484E-1,-5.0497955E-1,-8.654285E-1,-7.5917286E-1,-1.0929278E0,-2.8406942E-1,-6.703043E-1,4.9240118E-1,-4.8986755E-2,-3.937634E-1,2.1984838E-1,7.208836E-1,1.1734765E0,-7.740491E-2,7.315195E-1,5.859635E-1,1.1477466E0,3.7541085E-1,1.0418165E-1,-1.410548E-1,-1.10527396E-1,-1.2867084E-1,-1.4344607E-1,-6.455393E-2,-1.0452732E-1,-1.2843542E-1,-6.824457E-2,3.8373975E-5,-5.8276493E-2,-1.3818417E-1,-1.04565516E-1,-5.1670253E-2,-1.08868696E-1,-4.931399E-2,-9.794402E-3,4.8800837E-2,-1.6559824E-2,-8.439265E-2,-1.2740114E-1,-3.820872E-2,-7.254528E-2,-1.1394656E-1,-1.3836801E-1,-9.4479285E-2,1.146492E-2,-7.836226E-2,-2.905651E-2,-7.292267E-2,-1.1534239E-1,-5.792833E-2,-9.134546E-2,-1.1323924E-1,-6.0233828E-2,-3.532931E-2,8.206447E-3,-7.3180504E-2,-8.419549E-4,1.0159214E-1,4.24293E-2,-9.308081E-2,1.7193766E-2,4.1499883E-2,-7.9408295E-2,4.630859E-3,3.5659708E-2,1.0217854E-1,5.52777E-2,1.12652324E-1,1.4794785E-1,9.678855E-2,-2.6217982E-2,6.933549E-2,1.0208006E-1,6.9823734E-2,4.6375714E-2,1.2612538E-1,7.933049E-2,3.3176985E-2,8.935623E-2,-2.3443343E-3,3.645808E-2],"categories":[4,6,8,1,2,3,4,6,8,10,0,1,2,3,5,6,1,2,3,4,8,10,1,2,3,1,2,3,1,2,3,7,1,2,3,4,5,6,7,8,10,0,3,5,6,7,8,9],"categories_nodes":[4,6,8,12,15,23,24,55,59],"categories_segments":[0,3,10,16,22,25,28,32,41],"categories_sizes":[3,7,6,6,3,3,4,9,7],"default_left":[0,0,0,0,1,0,1,0,1,0,0,0,1,0,0,1,0,0,0,0,0,0,0,1,1,0,0,0,0,0,0,0,0,0,0,0,0,0,0,0,0,0,0,0,0,0,0,0,0,0,0,0,0,0,0,1,0,0,0,1,0,0,0,0,0,0,0,0,0,0,0,0,0,0,0,0,0,0,0,0,0,0,0,0,0,0,0,0,0,0,0,0,0,0,0,0,0,0,0,0,0,0,0,0,0,0,0,0,0,0,0,0,0,0,0,0,0,0,0,0,0,0,0,0,0],"id":2,"left_children":[1,3,5,7,9,11,13,15,17,19,21,23,25,27,29,31,33,35,37,39,41,43,45,47,49,51,53,55,57,59,61,63,65,67,-1,69,71,73,75,77,79,81,83,85,87,89,91,93,95,97,99,101,103,105,107,109,111,113,115,117,119,121,123,-1,-1,-1,-1,-1,-1,-1,-1,-1,-1,-1,-1,-1,-1,-1,-1,-1,-1,-1,-1,-1,-1,-1,-1,-1,-1,-1,-1,-1,-1,-1,-1,-1,-1,-1,-1,-1,-1,-1,-1,-1,-1,-1,-1,-1,-1,-1,-1,-1,-1,-1,-1,-1,-1,-1,-1,-1,-1,-1,-1,-1,-1],"loss_changes":[1.3107965E4,2.1012446E3,3.616001E3,5.920117E1,1.46255E3,6.386261E2,6.8152246E2,1.6041016E1,2.6427002E1,1.8371873E3,1.7385815E2,1.3698901E2,1.3887962E1,9.194214E1,4.4132178E2,1.4524902E1,3.4334717E0,1.4565598E1,1.47561035E1,3.402806E2,1.4242847E2,1.480835E1,1.2924634E2,4.0067505E1,4.5527023E1,1.24976425E1,1.2276137E1,6.5895996E1,1.6264648E1,3.3379395E2,8.280124E1,2.0471313E1,5.025635E0,2.8526306E0,0E0,9.398933E0,6.093024E0,1.2432007E1,3.984546E1,1.5620233E2,7.49847E2,7.235693E1,1.742485E1,9.964355E0,1.0608688E1,9.4529816E1,1.05006836E2,2.512085E1,1.1094788E1,1.8584091E1,2.1457932E1,1.2290306E1,9.751229E0,1.1790686E1,1.0092699E1,1.8771286E1,3.1319336E1,5.392081E0,6.849579E0,2.0081348E2,4.4917236E1,9.019049E1,5.2131424E1,0E0,0E0,0E0,0E0,0E0,0E0,0E0,0E0,0E0,0E0,0E0,0E0,0E0,0E0,0E0,0E0,0E0,0E0,0E0,0E0,0E0,0E0,0E0,0E0,0E0,0E0,0E0,0E0,0E0,0E0,0E0,0E0,0E0,0E0,0E0,0E0,0E0,0E0,0E0,0E0,0E0,0E0,0E0,0E0,0E0,0E0,0E0,0E0,0E0,0E0,0E0,0E0,0E0,0E0,0E0,0E0,0E0,0E0,0E0,0E0,0E0,0E0],"parents":[2147483647,0,0,1,1,2,2,3,3,4,4,5,5,6,6,7,7,8,8,9,9,10,10,11,11,12,12,13,13,14,14,15,15,16,16,17,17,18,18,19,19,20,20,21,21,22,22,23,23,24,24,25,25,26,26,27,27,28,28,29,29,30,30,31,31,32,32,33,33,35,35,36,36,37,37,38,38,39,39,40,40,41,41,42,42,43,43,44,44,45,45,46,46,47,47,48,48,49,49,50,50,51,51,52,52,53,53,54,54,55,55,56,56,57,57,58,58,59,59,60,60,61,61,62,62],"right_children":[2,4,6,8,10,12,14,16,18,20,22,24,26,28,30,32,34,36,38,40,42,44,46,48,50,52,54,56,58,60,62,64,66,68,-1,70,72,74,76,78,80,82,84,86,88,90,92,94,96,98,100,102,104,106,108,110,112,114,116,118,120,122,124,-1,-1,-1,-1,-1,-1,-1,-1,-1,-1,-1,-1,-1,-1,-1,-1,-1,-1,-1,-1,-1,-1,-1,-1,-1,-1,-1,-1,-1,-1,-1,-1,-1,-1,-1,-1,-1,-1,-1,-1,-1,-1,-1,-1,-1,-1,-1,-1,-1,-1,-1,-1,-1,-1,-1,-1,-1,-1,-1,-1,-1,-1],"split_conditions":[2.1E2,3E0,2.2E0,1.45E0,1E-45,1E0,1E-45,1.39E2,1E-45,4.9E1,2E0,9.6666664E-1,1E-45,1E0,1E0,1E-45,1.92E2,3.1E1,5E0,5E0,1.5E2,3.9683334E1,1.3E1,1E-45,1E-45,8.9E2,1.799E1,3.81E2,2.64E2,7.33E2,7.51E2,4E0,2.2E1,7E0,-1.3082575E-3,4E0,5.9E1,7E0,1.1E1,5E0,1.2E1,3.9E1,1.28E2,1.75E2,4.4E1,6E0,9.3E1,3.9E1,7.05E2,2.7E1,6.3E1,4E0,2.83E2,2E1,1.3E1,1E-45,7.3E2,7.1E1,1.091E3,1E-45,7.39E2,7.33E2,1.036E3,-1.410548E-1,-1.10527396E-1,-1.2867084E-1,-1.4344607E-1,-6.455393E-2,-1.0452732E-1,-1.2843542E-1,-6.824457E-2,3.8373975E-5,-5.8276493E-2,-1.3818417E-1,-1.04565516E-1,-5.1670253E-2,-1.08868696E-1,-4.931399E-2,-9.794402E-3,4.8800837E-2,-1.6559824E-2,-8.439265E-2,-1.2740114E-1,-3.820872E-2,-7.254528E-2,-1.1394656E-1,-1.3836801E-1,-9.4479285E-2,1.146492E-2,-7.836226E-2,-2.905651E-2,-7.292267E-2,-1.1534239E-1,-5.792833E-2,-9.134546E-2,-1.1323924E-1,-6.0233828E-2,-3.532931E-2,8.206447E-3,-7.3180504E-2,-8.419549E-4,1.0159214E-1,4.24293E-2,-9.308081E-2,1.7193766E-2,4.1499883E-2,-7.9408295E-2,4.630859E-3,3.5659708E-2,1.0217854E-1,5.52777E-2,1.12652324E-1,1.4794785E-1,9.678855E-2,-2.6217982E-2,6.933549E-2,1.0208006E-1,6.9823734E-2,4.6375714E-2,1.2612538E-1,7.933049E-2,3.3176985E-2,8.935623E-2,-2.3443343E-3,3.645808E-2],"split_indices":[2,13,13,13,5,9,5,2,5,2,2,13,5,9,9,5,9,2,2,2,2,13,2,5,5,2,6,2,2,2,2,2,2,1,0,1,2,1,2,1,2,9,9,0,1,2,0,0,2,1,1,1,9,9,4,5,2,9,2,5,2,2,2,0,0,0,0,0,0,0,0,0,0,0,0,0,0,0,0,0,0,0,0,0,0,0,0,0,0,0,0,0,0,0,0,0,0,0,0,0,0,0,0,0,0,0,0,0,0,0,0,0,0,0,0,0,0,0,0,0,0,0,0,0,0],"split_type":[0,0,0,0,1,0,1,0,1,0,0,0,1,0,0,1,0,0,0,0,0,0,0,1,1,0,0,0,0,0,0,0,0,0,0,0,0,0,0,0,0,0,0,0,0,0,0,0,0,0,0,0,0,0,0,1,0,0,0,1,0,0,0,0,0,0,0,0,0,0,0,0,0,0,0,0,0,0,0,0,0,0,0,0,0,0,0,0,0,0,0,0,0,0,0,0,0,0,0,0,0,0,0,0,0,0,0,0,0,0,0,0,0,0,0,0,0,0,0,0,0,0,0,0,0],"sum_hessian":[5.3632035E4,2.5228729E4,2.8403307E4,4.067514E3,2.1161215E4,3.6512654E3,2.4752041E4,2.461862E3,1.6056517E3,1.5542331E4,5.618883E3,2.7878682E3,8.633973E2,3.385218E3,2.1366822E4,2.3599258E3,1.0193641E2,1.9845023E2,1.4072015E3,1.1419344E4,4.122988E3,1.3364098E3,4.282473E3,1.5304806E3,1.2573877E3,4.040117E2,4.593856E2,2.6760884E3,7.091297E2,1.5798829E4,5.5679937E3,1.0832692E3,1.2766565E3,9.743944E1,4.4969707E0,1.2749336E2,7.0956856E1,4.9079117E2,9.164104E2,4.1602075E3,7.259136E3,3.2242327E3,8.987549E2,1.1175372E3,2.1887253E2,1.5850292E3,2.6974438E3,9.231995E2,6.0728107E2,7.310972E2,5.262904E2,3.5577963E2,4.823207E1,3.4399754E1,4.2498584E2,3.8126093E2,2.2948274E3,2.5603653E1,6.83526E2,1.4658496E4,1.140333E3,4.0006072E3,1.5673865E3,3.436323E2,7.396369E2,5.703957E2,7.062608E2,3.503998E1,6.2399456E1,4.0129143E1,8.736422E1,3.3693783E1,3.7263073E1,2.5080185E2,2.3998933E2,1.4799648E2,7.684139E2,1.6721486E3,2.4880586E3,2.9694795E3,4.2896567E3,2.7635566E3,4.6067612E2,7.1040576E2,1.8834915E2,8.743089E2,2.4322838E2,2.0918962E2,9.682916E0,6.8812244E2,8.9690674E2,1.8337428E3,8.6370105E2,4.2842227E2,4.9477722E2,5.6085583E2,4.6425247E1,6.148792E2,1.1621801E2,4.8144962E2,4.4840775E1,3.935528E1,3.1642435E2,9.019086E0,3.9212986E1,1.1377406E1,2.3022346E1,1.8788744E2,2.3709839E2,1.3483513E2,2.4642581E2,1.9936079E3,3.0121945E2,3.2094245E0,2.2394228E1,6.068602E2,7.666579E1,7.637255E3,7.0212407E3,8.617924E2,2.7854065E2,3.691346E3,3.0926117E2,1.0524681E3,5.149183E2],"tree_param":{"num_deleted":"0","num_feature":"15","num_nodes":"125","size_leaf_vector":"1"}},{"base_weights":[6.2858575E-4,1.6377315E-1,-1.0751096E0,6.646275E-1,2.1607006E-2,-5.290593E-1,-1.1761466E0,-1.10260524E-1,7.7689254E-1,-5.2646893E-1,7.651925E-2,-9.4682527E-1,-2.9371896E-1,-1.0390366E0,-1.324005E0,-2.155632E-1,3.8090208E-1,8.3065647E-1,3.6874682E-1,-7.7924645E-1,3.014808E-1,1.6995378E-1,-1.78739E-2,-9.9417686E-1,2.9979503E-1,4.2909943E-3,-4.1743088E-1,-1.2191548E0,-8.662637E-1,-1.4099001E0,-1.0039892E0,-5.1285714E-1,-1.1184122E-2,6.096063E-1,4.6171144E-2,8.5076404E-1,1.274034E-1,3.7954482E-1,-1.15340106E-1,-5.721887E-1,-8.994136E-1,-4.1664022E-1,3.9534634E-1,4.528613E-2,2.37426E-1,-1.22136645E-1,6.623578E-2,-7.459891E-1,-1.1029834E0,-1.5490703E-1,7.08833E-1,-4.3423615E-2,1.0271236E0,-2.1265808E-1,-5.66721E-1,-8.051703E-1,-1.3546209E0,-7.461816E-1,-1.1260343E0,-9.821853E-1,-1.4591135E0,-3.500637E-1,-1.1314648E0,-2.95516E-2,-6.692491E-2,-2.4092834E-2,1.596908E-2,4.0429514E-2,7.30265E-2,2.0098742E-2,-3.5315607E-2,6.499947E-2,8.867912E-2,-4.324304E-2,2.3445891E-2,8.5724816E-2,3.5275962E-2,-7.7617206E-2,-4.0525854E-2,-9.843164E-2,-6.577618E-2,6.812151E-2,-4.7502305E-2,4.5256484E-2,1.855225E-2,-1.6084777E-2,1.2931821E-2,3.0453352E-2,1.1731127E-2,-1.8738542E-2,1.0032071E-2,1.3477099E-2,-2.6114479E-2,-4.7674697E-2,-1.052979E-1,-6.9202565E-2,-1.18664496E-1,-6.922283E-2,3.7458964E-2,8.492621E-2,4.0341202E-2,2.6422283E-2,-1.03951115E-2,4.550212E-2,1.480379E-1,-1.1703971E-2,-8.602321E-2,-6.0903538E-2,-2.1080889E-2,-1.0330442E-1,-3.5858095E-2,-1.2905289E-1,-1.4825857E-1,-3.6071878E-2,-8.5054375E-2,-1.21789806E-1,-5.919087E-2,-1.1913418E-1,3.6648694E-2,-1.5618168E-1,-1.3363187E-1,-9.347492E-2,-1.4199354E-2,-1.2287821E-1,-5.0192613E-2],"categories":[],"categories_nodes":[],"categories_segments":[],"categories_sizes":[],"default_left":[0,0,0,0,0,0,0,0,0,0,0,0,0,0,0,0,0,0,0,0,0,0,0,0,0,0,0,0,0,0,0,0,0,0,0,0,0,0,0,0,0,0,0,0,0,0,0,0,0,0,0,0,0,0,0,0,0,0,0,0,0,0,0,0,0,0,0,0,0,0,0,0,0,0,0,0,0,0,0,0,0,0,0,0,0,0,0,0,0,0,0,0,0,0,0,0,0,0,0,0,0,0,0,0,0,0,0,0,0,0,0,0,0,0,0,0,0,0,0,0,0,0,0,0,0],"id":3,"left_children":[1,3,5,7,9,11,13,15,17,19,21,23,25,27,29,31,33,35,37,39,41,43,45,47,49,51,53,55,57,59,61,63,65,67,69,71,73,75,-1,77,79,81,83,85,87,89,91,93,95,97,99,101,103,105,107,109,111,113,115,117,119,121,123,-1,-1,-1,-1,-1,-1,-1,-1,-1,-1,-1,-1,-1,-1,-1,-1,-1,-1,-1,-1,-1,-1,-1,-1,-1,-1,-1,-1,-1,-1,-1,-1,-1,-1,-1,-1,-1,-1,-1,-1,-1,-1,-1,-1,-1,-1,-1,-1,-1,-1,-1,-1,-1,-1,-1,-1,-1,-1,-1,-1,-1,-1],"loss_changes":[9.325915E3,3.2854458E3,3.854497E2,8.8753125E2,1.0817174E3,1.0732477E2,1.1832031E2,6.6895515E1,1.9522314E2,6.8526135E2,2.881268E2,2.3551086E1,2.5865112E1,9.442236E1,7.657129E1,6.4667145E1,1.7458683E1,1.1121582E2,1.7513947E1,6.18844E1,5.1818245E1,1.3808914E2,1.4252893E2,9.431854E0,2.9337914E0,1.0136367E1,1.5034584E1,8.301196E1,4.81167E1,4.559619E1,4.9939697E1,1.4540588E1,2.4840734E1,3.0644646E0,5.8700066E0,5.478369E1,1.32875805E1,1.2907257E1,0E0,3.113858E1,3.1874878E1,6.032645E0,8.058655E0,9.9908E1,8.582782E1,1.0535361E2,2.0187785E2,9.319717E0,8.183655E0,2.5385249E0,7.914543E-3,3.7242029E0,1.7267809E0,1.2941488E1,4.1805115E0,3.750763E1,7.342041E0,4.298877E1,2.3526917E1,6.6334625E1,2.3157227E1,1.2027567E1,3.031488E1,0E0,0E0,0E0,0E0,0E0,0E0,0E0,0E0,0E0,0E0,0E0,0E0,0E0,0E0,0E0,0E0,0E0,0E0,0E0,0E0,0E0,0E0,0E0,0E0,0E0,0E0,0E0,0E0,0E0,0E0,0E0,0E0,0E0,0E0,0E0,0E0,0E0,0E0,0E0,0E0,0E0,0E0,0E0,0E0,0E0,0E0,0E0,0E0,0E0,0E0,0E0,0E0,0E0,0E0,0E0,0E0,0E0,0E0,0E0,0E0,0E0,0E0],"parents":[2147483647,0,0,1,1,2,2,3,3,4,4,5,5,6,6,7,7,8,8,9,9,10,10,11,11,12,12,13,13,14,14,15,15,16,16,17,17,18,18,19,19,20,20,21,21,22,22,23,23,24,24,25,25,26,26,27,27,28,28,29,29,30,30,31,31,32,32,33,33,34,34,35,35,36,36,37,37,39,39,40,40,41,41,42,42,43,43,44,44,45,45,46,46,47,47,48,48,49,49,50,50,51,51,52,52,53,53,54,54,55,55,56,56,57,57,58,58,59,59,60,60,61,61,62,62],"right_children":[2,4,6,8,10,12,14,16,18,20,22,24,26,28,30,32,34,36,38,40,42,44,46,48,50,52,54,56,58,60,62,64,66,68,70,72,74,76,-1,78,80,82,84,86,88,90,92,94,96,98,100,102,104,106,108,110,112,114,116,118,120,122,124,-1,-1,-1,-1,-1,-1,-1,-1,-1,-1,-1,-1,-1,-1,-1,-1,-1,-1,-1,-1,-1,-1,-1,-1,-1,-1,-1,-1,-1,-1,-1,-1,-1,-1,-1,-1,-1,-1,-1,-1,-1,-1,-1,-1,-1,-1,-1,-1,-1,-1,-1,-1,-1,-1,-1,-1,-1,-1,-1,-1,-1,-1],"split_conditions":[-1E0,2.999E1,0E0,2.2E0,3E0,2.8833334E0,1E0,1E0,1E0,1E0,4E0,1.14E2,3.479E1,1E0,1E0,7.6666665E-1,-2.4E2,-6E0,-2E0,4E0,-8.77E2,4E0,-6.91E2,4E0,7.6666665E-1,1.05583336E2,1E0,2E0,9.9E1,1.499E1,2.999E1,1.499E1,1E0,-4.69E2,-3.1E1,2E0,3.5833333E0,-6.76E2,-1.15340106E-1,1.1833333E0,2E0,3.959E1,4.4E1,-8.21E2,1.17E2,1.8E1,-5.4E1,1E0,1.499E1,1.9E2,2.699E1,1E0,8E0,1.72E2,7.3316666E1,1.8E1,1.03E2,2.999E1,2.77E2,1.3E1,5E0,4.45E0,1.05583336E2,-2.95516E-2,-6.692491E-2,-2.4092834E-2,1.596908E-2,4.0429514E-2,7.30265E-2,2.0098742E-2,-3.5315607E-2,6.499947E-2,8.867912E-2,-4.324304E-2,2.3445891E-2,8.5724816E-2,3.5275962E-2,-7.7617206E-2,-4.0525854E-2,-9.843164E-2,-6.577618E-2,6.812151E-2,-4.7502305E-2,4.5256484E-2,1.855225E-2,-1.6084777E-2,1.2931821E-2,3.0453352E-2,1.1731127E-2,-1.8738542E-2,1.0032071E-2,1.3477099E-2,-2.6114479E-2,-4.7674697E-2,-1.052979E-1,-6.9202565E-2,-1.18664496E-1,-6.922283E-2,3.7458964E-2,8.492621E-2,4.0341202E-2,2.6422283E-2,-1.03951115E-2,4.550212E-2,1.480379E-1,-1.1703971E-2,-8.602321E-2,-6.0903538E-2,-2.1080889E-2,-1.0330442E-1,-3.5858095E-2,-1.2905289E-1,-1.4825857E-1,-3.6071878E-2,-8.5054375E-2,-1.21789806E-1,-5.919087E-2,-1.1913418E-1,3.6648694E-2,-1.5618168E-1,-1.3363187E-1,-9.347492E-2,-1.4199354E-2,-1.2287821E-1,-5.0192613E-2],"split_indices":[14,6,14,13,13,13,11,10,10,10,3,1,6,14,10,13,14,14,14,3,14,1,14,3,13,13,11,3,0,6,6,6,11,14,14,1,13,14,0,13,13,6,1,14,0,4,14,11,6,1,6,3,1,0,13,4,0,6,14,14,0,13,13,0,0,0,0,0,0,0,0,0,0,0,0,0,0,0,0,0,0,0,0,0,0,0,0,0,0,0,0,0,0,0,0,0,0,0,0,0,0,0,0,0,0,0,0,0,0,0,0,0,0,0,0,0,0,0,0,0,0,0,0,0,0],"split_type":[0,0,0,0,0,0,0,0,0,0,0,0,0,0,0,0,0,0,0,0,0,0,0,0,0,0,0,0,0,0,0,0,0,0,0,0,0,0,0,0,0,0,0,0,0,0,0,0,0,0,0,0,0,0,0,0,0,0,0,0,0,0,0,0,0,0,0,0,0,0,0,0,0,0,0,0,0,0,0,0,0,0,0,0,0,0,0,0,0,0,0,0,0,0,0,0,0,0,0,0,0,0,0,0,0,0,0,0,0,0,0,0,0,0,0,0,0,0,0,0,0,0,0,0,0],"sum_hessian":[5.3136855E4,4.6140164E4,6.996689E3,1.020037E4,3.5939793E4,1.0934459E3,5.903243E3,1.2908109E3,8.90956E3,3.2721426E3,3.2667652E4,3.9292288E2,7.005231E2,3.0671147E3,2.8361282E3,1.0633873E3,2.2742355E2,7.871617E3,1.037942E3,2.5068474E3,7.652952E2,1.6416787E4,1.6250864E4,3.7873935E2,1.4183518E1,2.0578128E2,4.947418E2,1.4986724E3,1.5684425E3,2.2332883E3,6.028397E2,4.326038E2,6.3078357E2,1.3462209E2,9.280147E1,7.6526025E3,2.1901445E2,1.0313762E3,6.5658474E0,9.2270795E2,1.5841395E3,8.807052E1,6.7722473E2,5.7655386E3,1.0651249E4,7.255929E3,8.994935E3,1.1782852E2,2.6091083E2,7.011054E0,7.172464E0,1.9752441E2,8.256866E0,2.0962944E2,2.8511234E2,3.7120706E2,1.1274653E3,1.0752621E3,4.931804E2,2.3261179E2,2.0006766E3,9.895672E1,5.03883E2,1.8223604E2,2.5036774E2,2.6887143E2,3.6191214E2,5.144118E1,8.31809E1,6.7232574E1,2.5568895E1,1.1671937E3,6.4854087E3,3.4670418E1,1.8434402E2,5.31135E1,9.782627E2,4.136235E2,5.0908447E2,1.1699957E3,4.1414374E2,3.908342E0,8.416218E1,5.3120856E2,1.460162E2,1.6694355E3,4.096103E3,6.8324546E3,3.8187944E3,5.6104814E3,1.6454478E3,7.4383486E3,1.5565864E3,6.413373E1,5.3694798E1,4.5699543E1,2.1521129E2,3.3272765E0,3.6837773E0,3.6935723E0,3.4788918E0,3.1919596E1,1.6560483E2,4.5357294E0,3.721137E0,1.8368756E2,2.5941887E1,2.5418153E2,3.0930807E1,2.4492165E2,1.262854E2,7.5860016E2,3.6886517E2,2.3004489E2,8.4521716E2,4.1971402E2,7.346638E1,2.0148196E2,3.1129818E1,1.0830847E3,9.175919E2,2.5055971E1,7.390074E1,4.3559473E2,6.828828E1],"tree_param":{"num_deleted":"0","num_feature":"15","num_nodes":"125","size_leaf_vector":"1"}},{"base_weights":[-2.4065252E-3,-4.504633E-1,4.0900797E-1,-3.358475E-1,-1.2666316E0,5.6794894E-1,-7.626461E-1,-1.8213278E-1,-7.408296E-1,-1.0495814E0,-1.3758863E0,7.3551446E-2,6.2270766E-1,-2.770196E-1,-8.699917E-1,-4.3847714E-2,-6.0488236E-1,-1.0862811E0,-6.2574416E-1,-1.2275736E0,-8.8280773E-1,-1.4696271E0,-1.2821926E0,-1.2517248E-1,4.8347187E-1,7.6324266E-1,4.393822E-1,-6.818528E-1,-5.284193E-2,-1.1809176E0,-5.6717914E-1,-8.002316E-1,5.2026447E-2,-7.573299E-1,-2.2027381E-1,-1.1028523E0,-2.6218218E-1,-4.416421E-1,-7.318679E-1,-1.2383851E0,2.5194315E-2,-6.575129E-1,-1.1412417E0,-1.5151796E-1,-1.4065987E0,-9.6326435E-1,-1.4069159E0,-3.9528972E-1,8.454613E-2,5.87472E-1,2.6506177E-1,8.61082E-1,4.9245468E-1,5.2324015E-1,2.3871438E-1,-7.3606855E-1,6.6686386E-1,6.5857774E-1,-1.5768626E-1,-1.2002683E0,-2.9226372E-1,-2.8920093E-1,-8.266053E-1,-9.645352E-2,-6.401186E-2,1.2072667E-2,-4.634584E-2,-4.8222717E-2,-8.797099E-2,-5.452399E-3,-4.903617E-2,-9.993448E-2,-1.1904853E-1,1.980703E-3,-1.0668445E-1,-6.836826E-2,-2.4887858E-2,-8.0191344E-2,-2.3053093E-2,-1.4113113E-1,-1.1966677E-1,-7.751543E-2,-2.5241647E-2,-1.1647748E-1,-1.7784348E-2,-1.4173788E-1,-5.6390148E-2,-7.490042E-2,-1.2816118E-1,-1.2531197E-1,-1.4788555E-1,-4.639403E-2,1.3387747E-2,-7.898684E-3,3.4213383E-2,6.842812E-2,4.409612E-2,5.7158456E-3,6.261306E-2,5.0763227E-2,9.3301594E-2,6.404494E-2,3.668804E-2,8.436052E-2,4.8085995E-2,4.6656106E-2,8.691485E-3,-8.25161E-2,-2.1111889E-2,1.1429142E-1,-1.9054832E-4,-2.779296E-2,7.38979E-2,-2.9938234E-2,2.4506627E-2,-1.0514412E-1,-1.3121073E-1,4.144131E-2,-8.014863E-2,-7.7711575E-2,-1.8830873E-2,-9.9578455E-2,-5.119102E-2],"categories":[4,6,8,1,2,3,4,2,3,6,8,1,2,3,4,5,6,7,8,1,3,2,4,6,7,8,1,1,2,3,10],"categories_nodes":[3,4,12,28,30,49,56,59],"categories_segments":[0,3,7,11,19,21,26,27],"categories_sizes":[3,4,4,8,2,5,1,4],"default_left":[0,0,0,1,1,0,0,0,0,0,0,0,1,0,0,0,0,0,0,0,0,0,0,0,0,0,0,0,1,0,1,0,0,0,0,0,0,0,0,0,0,0,0,0,0,0,0,0,0,1,0,0,0,0,0,0,1,0,0,1,0,0,0,0,0,0,0,0,0,0,0,0,0,0,0,0,0,0,0,0,0,0,0,0,0,0,0,0,0,0,0,0,0,0,0,0,0,0,0,0,0,0,0,0,0,0,0,0,0,0,0,0,0,0,0,0,0,0,0,0,0,0,0],"id":4,"left_children":[1,3,5,7,9,11,13,15,17,19,21,23,25,27,29,31,33,35,37,39,41,43,45,47,49,51,53,55,57,59,61,63,65,67,69,71,73,75,77,79,-1,81,83,-1,85,87,89,91,93,95,97,99,101,103,105,107,109,111,113,115,117,119,121,-1,-1,-1,-1,-1,-1,-1,-1,-1,-1,-1,-1,-1,-1,-1,-1,-1,-1,-1,-1,-1,-1,-1,-1,-1,-1,-1,-1,-1,-1,-1,-1,-1,-1,-1,-1,-1,-1,-1,-1,-1,-1,-1,-1,-1,-1,-1,-1,-1,-1,-1,-1,-1,-1,-1,-1,-1,-1,-1,-1],"loss_changes":[9.75484E3,2.3692017E3,5.1378457E3,1.3826802E3,7.251709E1,6.576162E2,1.7156628E2,9.4135767E2,2.4228174E2,3.0040283E1,1.630835E1,1.9747714E2,5.6311816E2,5.424408E1,2.5341516E2,8.8004504E2,2.3254846E2,2.0547607E1,8.928479E1,8.383789E0,3.0973999E1,8.222656E-1,4.0164917E1,9.2539566E1,1.7822235E1,3.2752832E2,1.5961243E2,1.6071358E1,2.8896545E1,2.2529785E1,9.849277E1,3.529663E1,3.8149365E2,9.525708E1,5.047285E1,1.2374756E1,7.1433783E0,7.819394E1,1.0192786E2,1.9263916E0,0E0,1.3789391E1,5.5154114E0,0E0,3.2476196E0,1.927185E1,6.4246826E0,2.5996124E1,3.878493E1,7.291321E0,1.926604E1,2.306836E2,6.086615E1,9.047998E1,9.678862E1,9.428307E0,2.790734E0,3.953289E0,1.931948E1,2.0289795E1,1.1011875E1,3.246407E1,3.7164886E1,0E0,0E0,0E0,0E0,0E0,0E0,0E0,0E0,0E0,0E0,0E0,0E0,0E0,0E0,0E0,0E0,0E0,0E0,0E0,0E0,0E0,0E0,0E0,0E0,0E0,0E0,0E0,0E0,0E0,0E0,0E0,0E0,0E0,0E0,0E0,0E0,0E0,0E0,0E0,0E0,0E0,0E0,0E0,0E0,0E0,0E0,0E0,0E0,0E0,0E0,0E0,0E0,0E0,0E0,0E0,0E0,0E0,0E0,0E0,0E0],"parents":[2147483647,0,0,1,1,2,2,3,3,4,4,5,5,6,6,7,7,8,8,9,9,10,10,11,11,12,12,13,13,14,14,15,15,16,16,17,17,18,18,19,19,20,20,21,21,22,22,23,23,24,24,25,25,26,26,27,27,28,28,29,29,30,30,31,31,32,32,33,33,34,34,35,35,36,36,37,37,38,38,39,39,41,41,42,42,44,44,45,45,46,46,47,47,48,48,49,49,50,50,51,51,52,52,53,53,54,54,55,55,56,56,57,57,58,58,59,59,60,60,61,61,62,62],"right_children":[2,4,6,8,10,12,14,16,18,20,22,24,26,28,30,32,34,36,38,40,42,44,46,48,50,52,54,56,58,60,62,64,66,68,70,72,74,76,78,80,-1,82,84,-1,86,88,90,92,94,96,98,100,102,104,106,108,110,112,114,116,118,120,122,-1,-1,-1,-1,-1,-1,-1,-1,-1,-1,-1,-1,-1,-1,-1,-1,-1,-1,-1,-1,-1,-1,-1,-1,-1,-1,-1,-1,-1,-1,-1,-1,-1,-1,-1,-1,-1,-1,-1,-1,-1,-1,-1,-1,-1,-1,-1,-1,-1,-1,-1,-1,-1,-1,-1,-1,-1,-1,-1,-1],"split_conditions":[2.18E2,0E0,-1E0,1E-45,1E-45,2.65E0,0E0,5.1E1,2E0,3E1,3.1E1,1E0,1E-45,2.8833334E0,1E0,3E0,1.5E2,6.82E1,1.3E1,1.9E2,1.3E1,1E1,5E0,9.6666664E-1,-2.26E2,1E0,-2.46E2,1.14E2,1E-45,1.091E3,1E-45,1.25E0,-3.5E1,-9.45E2,-6.02E2,6.3E1,-6.25E2,6E0,1.56E2,1E0,2.5194315E-2,1.8E1,1.95E2,-1.5151796E-1,4.0266666E1,3.6E1,3E0,7.05E2,5.99E2,1E-45,5.71E2,3.64E2,-4.05E2,4E0,1.799E1,7.06E2,1E-45,2E0,7.26E2,1E-45,1.1E1,3.81E2,6.33E2,-9.645352E-2,-6.401186E-2,1.2072667E-2,-4.634584E-2,-4.8222717E-2,-8.797099E-2,-5.452399E-3,-4.903617E-2,-9.993448E-2,-1.1904853E-1,1.980703E-3,-1.0668445E-1,-6.836826E-2,-2.4887858E-2,-8.0191344E-2,-2.3053093E-2,-1.4113113E-1,-1.1966677E-1,-7.751543E-2,-2.5241647E-2,-1.1647748E-1,-1.7784348E-2,-1.4173788E-1,-5.6390148E-2,-7.490042E-2,-1.2816118E-1,-1.2531197E-1,-1.4788555E-1,-4.639403E-2,1.3387747E-2,-7.898684E-3,3.4213383E-2,6.842812E-2,4.409612E-2,5.7158456E-3,6.261306E-2,5.0763227E-2,9.3301594E-2,6.404494E-2,3.668804E-2,8.436052E-2,4.8085995E-2,4.6656106E-2,8.691485E-3,-8.25161E-2,-2.1111889E-2,1.1429142E-1,-1.9054832E-4,-2.779296E-2,7.38979E-2,-2.9938234E-2,2.4506627E-2,-1.0514412E-1,-1.3121073E-1,4.144131E-2,-8.014863E-2,-7.7711575E-2,-1.8830873E-2,-9.9578455E-2,-5.119102E-2],"split_indices":[2,14,14,5,5,13,14,2,2,2,2,9,5,13,14,13,2,13,2,1,14,0,14,13,14,9,14,1,5,2,5,13,14,14,14,0,14,2,2,2,0,4,14,0,13,2,13,2,2,5,9,2,14,4,6,2,5,4,2,5,1,2,2,0,0,0,0,0,0,0,0,0,0,0,0,0,0,0,0,0,0,0,0,0,0,0,0,0,0,0,0,0,0,0,0,0,0,0,0,0,0,0,0,0,0,0,0,0,0,0,0,0,0,0,0,0,0,0,0,0,0,0,0],"split_type":[0,0,0,1,1,0,0,0,0,0,0,0,1,0,0,0,0,0,0,0,0,0,0,0,0,0,0,0,1,0,1,0,0,0,0,0,0,0,0,0,0,0,0,0,0,0,0,0,0,1,0,0,0,0,0,0,1,0,0,1,0,0,0,0,0,0,0,0,0,0,0,0,0,0,0,0,0,0,0,0,0,0,0,0,0,0,0,0,0,0,0,0,0,0,0,0,0,0,0,0,0,0,0,0,0,0,0,0,0,0,0,0,0,0,0,0,0,0,0,0,0,0,0],"sum_hessian":[5.2916496E4,2.5330195E4,2.75863E4,2.2212297E4,3.117897E3,2.4291543E4,3.2947583E3,1.6102061E4,6.110237E3,1.0474982E3,2.0703987E3,2.4224497E3,2.1869094E4,5.970979E2,2.6976604E3,1.21340205E4,3.9680405E3,1.524803E3,4.5854336E3,5.0362952E2,5.438687E2,1.0275988E3,1.0428E3,1.6319816E3,7.9046814E2,1.2377498E4,9.491596E3,2.1207637E2,3.8502155E2,1.3295685E3,1.368092E3,1.3641815E3,1.0769839E4,2.8409873E3,1.1270531E3,1.4944146E3,3.0388523E1,1.6785938E3,2.9068398E3,5.0013782E2,3.4917061E0,2.9245746E2,2.5141125E2,5.831216E2,4.444771E2,2.956138E2,7.471862E2,7.128924E2,9.190891E2,5.3434143E2,2.5612665E2,9.090719E3,3.2867793E3,6.693015E3,2.7985808E3,2.0431746E2,7.758914E0,4.8775383E1,3.3624615E2,1.3008906E3,2.8677805E1,6.6145245E2,7.066396E2,6.7080035E2,6.9338116E2,9.50398E3,1.2658583E3,8.762255E2,1.9647618E3,6.9917773E2,4.2787537E2,6.908361E2,8.035784E2,2.3224882E1,7.1636405E0,7.43049E2,9.3554474E2,2.5499656E3,3.5687436E2,9.082423E1,4.0931357E2,2.2593239E2,6.6525055E1,2.452124E2,6.1988473E0,4.3818964E2,6.2874727E0,1.7869676E2,1.16917046E2,2.4399019E2,5.0319604E2,6.311363E2,8.175612E1,5.626051E2,3.5648398E2,3.195341E2,2.1480736E2,1.6327263E2,9.285403E1,1.5386355E3,7.552083E3,1.5068235E3,1.7799558E3,7.797489E2,5.913266E3,1.1181686E3,1.6804121E3,1.7418376E2,3.0133684E1,4.1183596E0,3.6405542E0,3.662152E0,4.511323E1,2.489259E2,8.732026E1,5.626105E2,7.3828015E2,1.2088331E1,1.6589474E1,1.1219154E2,5.492609E2,4.5816632E2,2.4847327E2],"tree_param":{"num_deleted":"0","num_feature":"15","num_nodes":"123","size_leaf_vector":"1"}},{"base_weights":[1.0406905E-3,-4.0429515E-1,3.7278885E-1,-3.0030608E-1,-1.1653533E0,5.24797E-1,-6.796065E-1,-1.5883292E-1,-6.7525405E-1,-1.0016035E0,-1.3484117E0,9.219687E-2,5.7683736E-1,-2.4250357E-1,-8.072733E-1,-2.8154211E-2,-5.452697E-1,-9.897831E-1,-5.7062536E-1,-1.2040197E0,-8.007976E-1,-1.1808693E0,-1.3985384E0,-7.6433666E-2,4.4260067E-1,7.059179E-1,3.985991E-1,2.300497E-1,-3.705693E-1,-1.0914936E0,-5.314206E-1,-7.319368E-1,5.9234243E-2,-6.819081E-1,-1.8682778E-1,-1.0340776E0,-7.573616E-1,-5.978038E-1,-7.789999E-2,-1.0343441E0,-1.315593E0,-1.8835382E-1,-8.836803E-1,-1.1975806E0,3.495036E-2,-1.492128E-1,-1.3692658E0,-3.5428315E-1,1.0162641E-1,5.6042117E-1,2.4018508E-1,7.990952E-1,4.4989166E-1,6.097416E-1,3.3222014E-1,-4.2970186E-1,3.9353925E-1,-6.673522E-1,-1.9151056E-1,-5.4491144E-1,-1.1279068E0,-2.4699436E-1,-7.445403E-1,-9.645965E-2,-4.8443347E-2,2.797922E-2,-8.119427E-3,-5.800114E-2,-9.317953E-2,-2.7241723E-3,-4.3677982E-2,-9.192101E-2,-1.13659434E-1,-7.9361975E-2,1.5521183E-2,-4.2347893E-2,-7.065504E-2,4.6160646E-2,-2.1419859E-2,-1.0542728E-1,7.467459E-2,-1.3402483E-1,-1.0097926E-1,2.7989341E-2,-9.749635E-2,-5.9057046E-2,-1.0312412E-1,-1.2127715E-1,1.4916591E-2,-1.2893473E-1,-1.4293975E-1,-5.3227283E-2,-1.7165808E-2,4.527189E-2,-4.3395098E-4,6.697285E-2,4.1479554E-2,-4.1027315E-2,2.8985703E-2,4.777197E-2,8.652997E-2,1.1138396E-2,5.1426567E-2,4.9937308E-2,8.885367E-2,5.4466605E-2,2.0735528E-2,1.8551517E-2,-5.849082E-2,1.1830315E-2,5.9984367E-2,-7.708605E-2,1.0489123E-3,-3.2573603E-3,-4.7989827E-2,2.6866585E-2,-7.689007E-2,-1.2233468E-1,-9.64049E-2,-7.382854E-2,-1.5366125E-2,-9.040555E-2,-3.768992E-2],"categories":[4,6,8,1,2,3,4,7,3,6,8,1,2,3,4,6,8,1,2,3,4,7,1,2,3,4,5,6,8,9,10,1,3,4,8,1,2,5,1,3,4,6,7,8,0,2,4,6,7,8],"categories_nodes":[3,10,12,13,19,29,30,42,48,49],"categories_segments":[0,3,8,11,17,22,31,35,38,44],"categories_sizes":[3,5,3,6,5,9,4,3,6,6],"default_left":[0,0,0,1,0,0,0,0,0,0,1,0,1,1,0,0,0,0,0,1,0,0,0,0,0,0,0,0,0,1,1,0,0,0,0,0,0,0,0,0,0,0,1,0,0,0,0,0,1,1,0,0,0,0,0,0,0,0,0,0,0,0,0,0,0,0,0,0,0,0,0,0,0,0,0,0,0,0,0,0,0,0,0,0,0,0,0,0,0,0,0,0,0,0,0,0,0,0,0,0,0,0,0,0,0,0,0,0,0,0,0,0,0,0,0,0,0,0,0,0,0,0,0],"id":5,"left_children":[1,3,5,7,9,11,13,15,17,19,21,23,25,27,29,31,33,35,37,39,41,43,45,47,49,51,53,55,57,59,61,63,65,67,69,71,73,75,77,79,81,83,85,87,-1,-1,89,91,93,95,97,99,101,103,105,107,109,111,113,115,117,119,121,-1,-1,-1,-1,-1,-1,-1,-1,-1,-1,-1,-1,-1,-1,-1,-1,-1,-1,-1,-1,-1,-1,-1,-1,-1,-1,-1,-1,-1,-1,-1,-1,-1,-1,-1,-1,-1,-1,-1,-1,-1,-1,-1,-1,-1,-1,-1,-1,-1,-1,-1,-1,-1,-1,-1,-1,-1,-1,-1,-1],"loss_changes":[7.9003516E3,1.9846885E3,4.375331E3,1.1705049E3,8.9020996E1,5.3793555E2,1.9244165E2,8.0918066E2,1.9837769E2,6.3875854E1,1.0279053E1,1.517296E2,4.9048145E2,4.73965E1,2.088573E2,7.3657635E2,1.9819568E2,1.4738037E1,6.0732544E1,1.3641235E1,4.063434E1,8.949493E0,9.375E-1,8.5824875E1,1.9760681E1,2.947417E2,1.25400024E2,1.8215458E1,3.2578934E1,2.555249E1,8.210657E1,7.5707275E1,3.2999957E2,7.4099976E1,4.4622047E1,1.3834961E1,8.23204E0,8.124011E1,1.7630167E1,1.2111633E1,2.2233276E0,3.603072E1,3.0000183E1,6.9361877E0,0E0,0E0,2.1982422E0,2.1929817E1,3.9347244E1,8.103821E0,1.0092146E1,1.9252588E2,7.19187E1,6.547589E1,1.8081287E2,3.326788E0,7.572212E0,1.6229301E1,1.764331E1,1.5523615E1,1.8082642E1,2.6618912E1,4.514142E1,0E0,0E0,0E0,0E0,0E0,0E0,0E0,0E0,0E0,0E0,0E0,0E0,0E0,0E0,0E0,0E0,0E0,0E0,0E0,0E0,0E0,0E0,0E0,0E0,0E0,0E0,0E0,0E0,0E0,0E0,0E0,0E0,0E0,0E0,0E0,0E0,0E0,0E0,0E0,0E0,0E0,0E0,0E0,0E0,0E0,0E0,0E0,0E0,0E0,0E0,0E0,0E0,0E0,0E0,0E0,0E0,0E0,0E0,0E0,0E0],"parents":[2147483647,0,0,1,1,2,2,3,3,4,4,5,5,6,6,7,7,8,8,9,9,10,10,11,11,12,12,13,13,14,14,15,15,16,16,17,17,18,18,19,19,20,20,21,21,22,22,23,23,24,24,25,25,26,26,27,27,28,28,29,29,30,30,31,31,32,32,33,33,34,34,35,35,36,36,37,37,38,38,39,39,40,40,41,41,42,42,43,43,46,46,47,47,48,48,49,49,50,50,51,51,52,52,53,53,54,54,55,55,56,56,57,57,58,58,59,59,60,60,61,61,62,62],"right_children":[2,4,6,8,10,12,14,16,18,20,22,24,26,28,30,32,34,36,38,40,42,44,46,48,50,52,54,56,58,60,62,64,66,68,70,72,74,76,78,80,82,84,86,88,-1,-1,90,92,94,96,98,100,102,104,106,108,110,112,114,116,118,120,122,-1,-1,-1,-1,-1,-1,-1,-1,-1,-1,-1,-1,-1,-1,-1,-1,-1,-1,-1,-1,-1,-1,-1,-1,-1,-1,-1,-1,-1,-1,-1,-1,-1,-1,-1,-1,-1,-1,-1,-1,-1,-1,-1,-1,-1,-1,-1,-1,-1,-1,-1,-1,-1,-1,-1,-1,-1,-1,-1,-1],"split_conditions":[2.18E2,0E0,-2E0,1E-45,1E0,3E0,0E0,4.9E1,2E0,3.1E1,1E-45,1E0,1E-45,1E-45,1E0,3E0,1.5E2,3.7866665E1,1.97E2,1E-45,2E0,1.14E2,3E0,9.6666664E-1,-2.65E2,1E0,1.499E1,1.1833333E0,3.35E0,1E-45,1E-45,1E0,-8.99E2,9.4E1,-6.02E2,7E1,4.4E1,1.3E1,-9.07E2,1.9E2,9.1E0,7E0,1E-45,1.95E2,3.495036E-2,-1.492128E-1,1.3E1,5.02E2,1E-45,1E-45,4E2,3.64E2,3.64E2,7.33E2,-5.2E2,-1E0,4E0,7.12E2,6.3E1,3E0,3.5833333E0,3.81E2,6.98E2,-9.645965E-2,-4.8443347E-2,2.797922E-2,-8.119427E-3,-5.800114E-2,-9.317953E-2,-2.7241723E-3,-4.3677982E-2,-9.192101E-2,-1.13659434E-1,-7.9361975E-2,1.5521183E-2,-4.2347893E-2,-7.065504E-2,4.6160646E-2,-2.1419859E-2,-1.0542728E-1,7.467459E-2,-1.3402483E-1,-1.0097926E-1,2.7989341E-2,-9.749635E-2,-5.9057046E-2,-1.0312412E-1,-1.2127715E-1,1.4916591E-2,-1.2893473E-1,-1.4293975E-1,-5.3227283E-2,-1.7165808E-2,4.527189E-2,-4.3395098E-4,6.697285E-2,4.1479554E-2,-4.1027315E-2,2.8985703E-2,4.777197E-2,8.652997E-2,1.1138396E-2,5.1426567E-2,4.9937308E-2,8.885367E-2,5.4466605E-2,2.0735528E-2,1.8551517E-2,-5.849082E-2,1.1830315E-2,5.9984367E-2,-7.708605E-2,1.0489123E-3,-3.2573603E-3,-4.7989827E-2,2.6866585E-2,-7.689007E-2,-1.2233468E-1,-9.64049E-2,-7.382854E-2,-1.5366125E-2,-9.040555E-2,-3.768992E-2],"split_indices":[2,14,14,5,11,13,14,2,2,2,5,9,5,5,14,13,2,13,2,5,1,1,2,13,14,9,6,13,13,5,5,11,14,0,14,0,1,2,14,1,13,14,5,14,0,0,14,2,5,5,2,2,2,2,14,14,0,2,0,1,13,2,2,0,0,0,0,0,0,0,0,0,0,0,0,0,0,0,0,0,0,0,0,0,0,0,0,0,0,0,0,0,0,0,0,0,0,0,0,0,0,0,0,0,0,0,0,0,0,0,0,0,0,0,0,0,0,0,0,0,0,0,0],"split_type":[0,0,0,1,0,0,0,0,0,0,1,0,1,1,0,0,0,0,0,1,0,0,0,0,0,0,0,0,0,1,1,0,0,0,0,0,0,0,0,0,0,0,1,0,0,0,0,0,1,1,0,0,0,0,0,0,0,0,0,0,0,0,0,0,0,0,0,0,0,0,0,0,0,0,0,0,0,0,0,0,0,0,0,0,0,0,0,0,0,0,0,0,0,0,0,0,0,0,0,0,0,0,0,0,0,0,0,0,0,0,0,0,0,0,0,0,0,0,0,0,0,0,0],"sum_hessian":[5.242833E4,2.5081074E4,2.7347254E4,2.2067256E4,3.0138193E3,2.3896186E4,3.451068E3,1.6022981E4,6.0442734E3,1.5942225E3,1.4195968E3,2.5662517E3,2.1329934E4,7.8077313E2,2.6702952E3,1.1974664E4,4.0483176E3,1.5066387E3,4.537635E3,7.9143994E2,8.027826E2,3.325725E2,1.0870243E3,1.7330227E3,8.3322894E2,1.2369184E4,8.960749E3,1.663089E2,6.1446423E2,1.3137441E3,1.356551E3,1.3218416E3,1.0652822E4,2.9303599E3,1.1179578E3,1.262571E3,2.4406761E2,4.300224E3,2.3741081E2,3.1804395E2,4.73396E2,9.6081535E1,7.0670105E2,3.2919525E2,3.3772728E0,2.47083E2,8.3994135E2,6.76463E2,1.0565598E3,5.2555133E2,3.076776E2,9.067183E3,3.3020015E3,2.141318E3,6.8194316E3,3.2704338E1,1.3360457E2,2.3019609E2,3.8426813E2,8.305212E1,1.230692E3,5.819922E2,7.745588E2,6.7985895E2,6.419826E2,4.1437026E3,6.509119E3,2.0839194E3,8.464403E2,6.8299634E2,4.349615E2,6.0011865E2,6.6245233E2,2.348663E2,9.201308E0,1.6538837E3,2.6463406E3,4.740043E1,1.9001039E2,3.1492828E2,3.1156623E0,4.3494562E2,3.8450382E1,6.0632717E1,3.544882E1,2.3831757E2,4.6838348E2,3.256218E2,3.5734591E0,3.7027094E2,4.696704E2,3.416096E2,3.3485342E2,2.4419762E2,8.123621E2,2.981554E2,2.2739595E2,2.131367E1,2.8636395E2,1.550215E3,7.5169673E3,5.2804285E2,2.7739587E3,1.5360303E3,6.0528784E2,2.5231553E3,4.296276E3,6.5491424E0,2.6155195E1,5.791376E1,7.56908E1,1.9958212E2,3.0613968E1,2.4845302E2,1.358151E2,1.7886185E1,6.516593E1,7.73624E2,4.57068E2,9.180974E1,4.9018246E2,5.3916296E2,2.3539581E2],"tree_param":{"num_deleted":"0","num_feature":"15","num_nodes":"123","size_leaf_vector":"1"}},{"base_weights":[-8.579255E-4,-3.78451E-1,3.3574462E-1,-2.820777E-1,-1.1087224E0,4.7275022E-1,-6.1990315E-1,-1.5174395E-1,-6.3159823E-1,-9.673432E-1,-1.2720876E0,7.406428E-1,3.978315E-1,-2.1424565E-1,-7.383922E-1,-3.6889605E-2,-5.550284E-1,-9.159014E-1,-5.3739244E-1,-1.1737655E0,-7.598614E-1,-1.1159625E0,-1.317049E0,3.091781E-1,8.0573285E-1,-8.814023E-3,4.4267064E-1,2.770202E-1,-3.45422E-1,-9.9617493E-1,-4.9782145E-1,-6.761568E-1,4.103069E-2,-7.1111405E-1,-3.2485384E-1,-9.626626E-1,-6.7044497E-1,-3.7368986E-1,-6.367441E-1,-1.0223045E0,-1.2746118E0,-4.3623477E-1,-9.3030536E-1,-1.1334752E0,3.2020986E-2,-1.319096E0,-5.2204784E-2,-9.603626E-2,4.3078384E-1,9.859279E-1,7.021597E-1,-1.856613E-1,3.6576685E-1,5.239547E-1,2.730525E-1,-1.6607457E-1,4.906125E-1,-4.604177E-1,1.1560488E-1,-8.730287E-1,-1.1223538E0,-6.8461025E-1,-1.8275574E-1,-9.057426E-2,-4.3337014E-2,-1.7944815E-2,1.6534371E-2,-3.516514E-2,-7.834057E-2,2.020328E-3,-3.90205E-2,-1.0413559E-1,-8.41766E-2,1.5404786E-2,-7.153832E-2,-5.928535E-2,-1.982014E-2,-4.5914546E-2,-7.5545624E-2,-1.07745744E-1,-6.0435224E-2,-1.2942424E-1,-1.0133427E-1,-6.791406E-2,6.8600024E-3,-7.303334E-2,-1.0702684E-1,-9.984245E-2,-1.2607785E-1,-1.4078932E-1,-1.2911004E-1,-4.584036E-2,1.7739907E-2,3.0970458E-2,6.1405864E-2,1.04998305E-1,6.6974305E-2,8.0492996E-2,5.369667E-2,-3.5510626E-2,7.1183513E-3,5.2248444E-2,1.837582E-2,3.1210551E-2,5.7626106E-2,4.5683194E-2,1.9521264E-2,-6.823849E-2,-4.015855E-3,6.946152E-2,1.620663E-2,-7.135882E-2,-2.8763598E-2,4.3950662E-2,-2.60375E-2,-9.971103E-2,-6.405871E-2,-1.0848504E-1,-1.3513732E-1,-4.458034E-2,-1.011434E-1,5.4785903E-3,-3.8767103E-2],"categories":[4,6,8,1,2,3,6,8,0,1,2,3,4,7,1,2,3,4,6,8,1,2,3,4,7,1,2,3,4,5,6,8,10,1,2,3,0,1,2,4,9,1,2,3,4,5,6,7,8,2,3,1,3,7,8,10],"categories_nodes":[3,5,10,13,19,24,29,42,56,60,62],"categories_segments":[0,3,8,14,20,25,33,36,41,49,51],"categories_sizes":[3,5,6,6,5,8,3,5,8,2,5],"default_left":[0,0,0,1,0,1,0,0,0,0,1,0,0,1,0,0,0,0,0,1,0,0,0,0,1,0,0,0,0,1,0,0,0,0,0,0,0,0,0,0,0,0,1,0,0,0,0,0,0,0,0,0,0,0,0,0,1,0,0,0,1,0,1,0,0,0,0,0,0,0,0,0,0,0,0,0,0,0,0,0,0,0,0,0,0,0,0,0,0,0,0,0,0,0,0,0,0,0,0,0,0,0,0,0,0,0,0,0,0,0,0,0,0,0,0,0,0,0,0,0,0,0,0],"id":6,"left_children":[1,3,5,7,9,11,13,15,17,19,21,23,25,27,29,31,33,35,37,39,41,43,45,47,49,51,53,55,57,59,61,63,65,67,69,71,73,75,77,79,81,83,85,87,-1,89,-1,91,93,95,97,99,101,103,105,107,109,111,113,115,117,119,121,-1,-1,-1,-1,-1,-1,-1,-1,-1,-1,-1,-1,-1,-1,-1,-1,-1,-1,-1,-1,-1,-1,-1,-1,-1,-1,-1,-1,-1,-1,-1,-1,-1,-1,-1,-1,-1,-1,-1,-1,-1,-1,-1,-1,-1,-1,-1,-1,-1,-1,-1,-1,-1,-1,-1,-1,-1,-1,-1,-1],"loss_changes":[6.590125E3,1.7195486E3,3.5894739E3,9.834043E2,6.4562744E1,4.8091602E2,1.6507874E2,7.2843555E2,1.5655444E2,6.469006E1,7.784912E0,1.46875E2,3.4167993E2,5.026681E1,1.6447461E2,6.0981854E2,1.2501318E2,1.6088867E1,7.143298E1,1.0393311E1,4.1874634E1,7.9418335E0,9.6813965E-1,3.3959763E1,8.425171E1,1.234146E2,2.3255396E2,1.5662174E1,3.265352E1,1.8958374E1,8.0972595E1,7.37478E1,2.9913116E2,5.3685425E1,3.1815536E1,1.0752563E1,8.876541E0,6.398732E1,5.744055E1,6.5205383E0,1.0253296E0,3.2703526E1,1.3246124E1,3.8631897E0,0E0,7.0495605E-1,0E0,1.5905497E1,1.1562607E1,3.28916E1,4.869275E1,5.5101894E1,1.6947052E1,1.2624194E2,7.815997E1,3.502324E0,7.3495502E0,2.1331902E1,1.5161518E1,1.8220306E1,3.9473877E0,6.70419E1,2.505334E1,0E0,0E0,0E0,0E0,0E0,0E0,0E0,0E0,0E0,0E0,0E0,0E0,0E0,0E0,0E0,0E0,0E0,0E0,0E0,0E0,0E0,0E0,0E0,0E0,0E0,0E0,0E0,0E0,0E0,0E0,0E0,0E0,0E0,0E0,0E0,0E0,0E0,0E0,0E0,0E0,0E0,0E0,0E0,0E0,0E0,0E0,0E0,0E0,0E0,0E0,0E0,0E0,0E0,0E0,0E0,0E0,0E0,0E0,0E0,0E0],"parents":[2147483647,0,0,1,1,2,2,3,3,4,4,5,5,6,6,7,7,8,8,9,9,10,10,11,11,12,12,13,13,14,14,15,15,16,16,17,17,18,18,19,19,20,20,21,21,22,22,23,23,24,24,25,25,26,26,27,27,28,28,29,29,30,30,31,31,32,32,33,33,34,34,35,35,36,36,37,37,38,38,39,39,40,40,41,41,42,42,43,43,45,45,47,47,48,48,49,49,50,50,51,51,52,52,53,53,54,54,55,55,56,56,57,57,58,58,59,59,60,60,61,61,62,62],"right_children":[2,4,6,8,10,12,14,16,18,20,22,24,26,28,30,32,34,36,38,40,42,44,46,48,50,52,54,56,58,60,62,64,66,68,70,72,74,76,78,80,82,84,86,88,-1,90,-1,92,94,96,98,100,102,104,106,108,110,112,114,116,118,120,122,-1,-1,-1,-1,-1,-1,-1,-1,-1,-1,-1,-1,-1,-1,-1,-1,-1,-1,-1,-1,-1,-1,-1,-1,-1,-1,-1,-1,-1,-1,-1,-1,-1,-1,-1,-1,-1,-1,-1,-1,-1,-1,-1,-1,-1,-1,-1,-1,-1,-1,-1,-1,-1,-1,-1,-1,-1,-1,-1,-1],"split_conditions":[2.1E2,0E0,-2E0,1E-45,1E0,1E-45,0E0,5.4E1,2E0,3.1E1,1E-45,3.0666666E0,2.8833334E0,1E-45,1E0,3E0,1.09E2,3.7866665E1,1.3E1,1E-45,3.3E1,1.14E2,1E0,3.82E2,1E-45,1E0,-2.81E2,2.65E0,7.22E2,1E-45,6.93E2,1E0,5E0,-1.047E3,-9.79E2,1E0,4E0,6E0,1.5933333E1,5E0,9.1E0,1.8E1,1E-45,4.35E0,3.2020986E-2,3E0,-5.2204784E-2,1.1833333E0,6.96E2,1E0,-3.43E2,1.45E0,-3.43E2,3.64E2,1.799E1,3E0,1E-45,3.35E0,1.1E1,3.5833333E0,1E-45,1E0,1E-45,-9.057426E-2,-4.3337014E-2,-1.7944815E-2,1.6534371E-2,-3.516514E-2,-7.834057E-2,2.020328E-3,-3.90205E-2,-1.0413559E-1,-8.41766E-2,1.5404786E-2,-7.153832E-2,-5.928535E-2,-1.982014E-2,-4.5914546E-2,-7.5545624E-2,-1.07745744E-1,-6.0435224E-2,-1.2942424E-1,-1.0133427E-1,-6.791406E-2,6.8600024E-3,-7.303334E-2,-1.0702684E-1,-9.984245E-2,-1.2607785E-1,-1.4078932E-1,-1.2911004E-1,-4.584036E-2,1.7739907E-2,3.0970458E-2,6.1405864E-2,1.04998305E-1,6.6974305E-2,8.0492996E-2,5.369667E-2,-3.5510626E-2,7.1183513E-3,5.2248444E-2,1.837582E-2,3.1210551E-2,5.7626106E-2,4.5683194E-2,1.9521264E-2,-6.823849E-2,-4.015855E-3,6.946152E-2,1.620663E-2,-7.135882E-2,-2.8763598E-2,4.3950662E-2,-2.60375E-2,-9.971103E-2,-6.405871E-2,-1.0848504E-1,-1.3513732E-1,-4.458034E-2,-1.011434E-1,5.4785903E-3,-3.8767103E-2],"split_indices":[2,14,14,5,11,5,14,2,2,2,5,13,13,5,14,13,2,13,2,5,2,1,12,2,5,9,14,13,2,5,2,11,2,14,14,2,4,2,13,14,13,4,5,13,0,2,0,13,2,9,14,13,14,2,6,1,5,13,1,13,5,11,5,0,0,0,0,0,0,0,0,0,0,0,0,0,0,0,0,0,0,0,0,0,0,0,0,0,0,0,0,0,0,0,0,0,0,0,0,0,0,0,0,0,0,0,0,0,0,0,0,0,0,0,0,0,0,0,0,0,0,0,0],"split_type":[0,0,0,1,0,1,0,0,0,0,1,0,0,1,0,0,0,0,0,1,0,0,0,0,1,0,0,0,0,1,0,0,0,0,0,0,0,0,0,0,0,0,1,0,0,0,0,0,0,0,0,0,0,0,0,0,1,0,0,0,1,0,1,0,0,0,0,0,0,0,0,0,0,0,0,0,0,0,0,0,0,0,0,0,0,0,0,0,0,0,0,0,0,0,0,0,0,0,0,0,0,0,0,0,0,0,0,0,0,0,0,0,0,0,0,0,0,0,0,0,0,0,0],"sum_hessian":[5.1848414E4,2.4436254E4,2.741216E4,2.158861E4,2.8476443E3,2.3975445E4,3.4367136E3,1.5725948E4,5.8626616E3,1.5302549E3,1.3173895E3,5.2377046E3,1.8737742E4,7.775413E2,2.6591724E3,1.2240872E4,3.4850764E3,1.456967E3,4.4056943E3,7.6475146E2,7.655034E2,3.0033154E2,1.017058E3,6.873296E2,4.550375E3,1.8610164E3,1.6876725E4,1.6362836E2,6.1391296E2,1.282149E3,1.3770232E3,1.3291003E3,1.0911771E4,2.0755305E3,1.4095459E3,1.2213662E3,2.3560081E2,1.6657631E3,2.7399314E3,3.1012E2,4.5463147E2,2.653105E2,5.001929E2,2.9692163E2,3.409896E0,1.0137884E3,3.2695916E0,1.5870462E2,5.28625E2,1.6577415E3,2.8926335E3,1.2645166E3,5.9649976E2,1.140781E4,5.4689155E3,5.3293686E1,1.1033466E2,4.91354E2,1.2255899E2,6.5288E2,6.2926904E2,8.6376276E2,5.132605E2,6.8171826E2,6.473821E2,3.9340261E3,6.9777456E3,3.485024E2,1.7270282E3,2.2455835E2,1.1849875E3,7.352005E2,4.8616577E2,1.2051976E1,2.2354884E2,7.396511E2,9.2611194E2,1.0996599E3,1.6402715E3,2.7257336E2,3.754663E1,4.1918237E2,3.5449104E1,1.7889046E2,8.642003E1,2.0850688E2,2.91686E2,1.4836754E2,1.485541E2,2.3119304E2,7.8259534E2,6.79621E1,9.0742516E1,3.199452E2,2.0867981E2,1.3765492E3,2.8119235E2,1.7808522E3,1.1117812E3,7.6165625E2,5.0286032E2,3.195136E2,2.769861E2,2.2602798E3,9.147529E3,1.6257238E3,3.8431917E3,9.582385E0,4.3711304E1,6.738155E1,4.295311E1,1.980414E2,2.933126E2,6.574853E1,5.6810463E1,4.2351184E2,2.293682E2,5.456519E2,8.3617134E1,5.004517E2,3.6331107E2,2.3804588E2,2.752146E2],"tree_param":{"num_deleted":"0","num_feature":"15","num_nodes":"123","size_leaf_vector":"1"}},{"base_weights":[1.0200272E-3,-3.4466296E-1,3.092083E-1,-2.5659212E-1,-1.0301416E0,4.3148744E-1,-5.9329176E-1,-1.3911778E-1,-5.740346E-1,-8.860352E-1,-1.1993446E0,5.392818E-1,2.8236955E-1,-6.853599E-1,-2.2849572E-1,-3.1642966E-2,-4.9770495E-1,-8.57354E-1,-4.811657E-1,-1.094476E0,-6.803484E-1,-1.008595E0,-1.2407637E0,1.580922E-1,5.8354884E-1,-4.4191197E-2,3.2201353E-1,-5.3913903E-1,-8.711827E-1,-6.513684E-1,-8.8460214E-2,-6.3621527E-1,4.0758383E-2,-6.345561E-1,-3.0511084E-1,-8.8334894E-1,-2.4449722E-1,-4.0062344E-1,-6.2812877E-1,-9.289488E-1,-1.2168423E0,-4.6118066E-1,-9.392941E-1,-8.6628604E-1,-1.1803948E0,-1.334313E-1,-1.2058134E0,3.5985157E-2,4.924744E-1,6.677275E-1,3.5579872E-1,-1.7678748E-1,3.0671743E-1,5.8043754E-1,2.7244997E-1,-4.1501886E-1,-8.332712E-1,-4.9044904E-1,-9.6557724E-1,-9.4830334E-2,-7.530967E-1,4.9588993E-1,-2.5357902E-1,-8.349119E-2,-4.3097004E-2,2.094509E-2,-1.2488059E-2,-2.3977218E-2,-7.166407E-2,3.5239148E-3,-3.6632046E-2,-8.195151E-2,-1.0834014E-1,2.4833316E-2,-5.575434E-2,-1.2937534E-2,-4.5614354E-2,-3.469024E-2,-8.3581485E-2,-1.0160222E-1,-5.797423E-2,-1.2640862E-1,-1.0761263E-1,-8.3193205E-2,-2.6379922E-2,-8.206518E-2,-1.2426938E-1,2.5518939E-2,-9.244235E-2,-8.858534E-2,-1.2838213E-1,-1.0390108E-1,-1.2392434E-1,-9.181055E-3,3.7024703E-2,3.0159518E-2,6.169671E-2,3.8449E-2,7.334298E-2,7.938318E-3,4.1167825E-2,-2.3236671E-2,4.6158273E-2,4.680098E-2,1.2649867E-2,6.692917E-2,2.7615372E-2,4.73208E-2,2.1210222E-2,-6.110838E-2,-2.4253946E-2,-9.079279E-2,-3.5828788E-2,-8.42685E-2,-3.175051E-2,-7.600952E-2,-1.1018651E-1,-4.2461593E-2,4.412807E-2,-1.0663898E-1,-4.301926E-2,-1.2488267E-3,7.037628E-2,-4.928509E-2,1.5467535E-2],"categories":[4,6,8,3,6,8,1,2,3,4,7,10,1,2,3,4,0,1,3,7,10],"categories_nodes":[3,5,10,19,58],"categories_segments":[0,3,6,12,16],"categories_sizes":[3,3,6,4,5],"default_left":[0,0,0,1,0,1,0,0,0,0,1,0,0,0,0,0,0,0,0,1,0,0,0,0,0,0,0,0,0,0,0,0,0,0,0,0,0,0,0,0,0,0,0,0,0,0,0,0,0,0,0,0,0,0,0,0,0,0,1,0,0,0,0,0,0,0,0,0,0,0,0,0,0,0,0,0,0,0,0,0,0,0,0,0,0,0,0,0,0,0,0,0,0,0,0,0,0,0,0,0,0,0,0,0,0,0,0,0,0,0,0,0,0,0,0,0,0,0,0,0,0,0,0,0,0],"id":7,"left_children":[1,3,5,7,9,11,13,15,17,19,21,23,25,27,29,31,33,35,37,39,41,43,45,47,49,51,53,55,57,59,61,63,65,67,69,71,73,75,77,79,81,83,85,87,89,-1,91,93,95,97,99,101,103,105,107,109,111,113,115,117,119,121,123,-1,-1,-1,-1,-1,-1,-1,-1,-1,-1,-1,-1,-1,-1,-1,-1,-1,-1,-1,-1,-1,-1,-1,-1,-1,-1,-1,-1,-1,-1,-1,-1,-1,-1,-1,-1,-1,-1,-1,-1,-1,-1,-1,-1,-1,-1,-1,-1,-1,-1,-1,-1,-1,-1,-1,-1,-1,-1,-1,-1,-1,-1],"loss_changes":[5.460633E3,1.4582104E3,2.9906904E3,7.983076E2,6.599585E1,3.8345557E2,1.084541E2,6.0227E2,1.517351E2,6.3097534E1,8.720093E0,2.3362671E2,1.296742E2,6.967578E1,3.8621956E1,5.2638934E2,9.478961E1,2.250586E1,5.1324585E1,1.3816528E1,4.2252228E1,4.6130524E0,1.767334E0,5.8879505E1,2.3766846E2,5.0543022E1,1.1423645E2,5.2494904E1,4.0325806E1,9.119339E0,4.758257E1,5.2090576E1,3.001245E2,6.8069275E1,3.1239532E1,1.6579468E1,9.30521E0,4.2371277E1,8.970453E1,9.076691E0,1.4389038E0,2.9734238E1,1.135611E1,8.700951E0,1.9600983E0,0E0,2.9622803E0,4.521645E1,8.981102E0,1.6830591E2,5.1726135E1,2.8071142E1,8.601379E0,3.8650604E1,9.071362E1,3.4340317E1,1.4870758E1,1.3595421E1,2.4609375E1,4.82513E0,1.3411224E1,1.14958935E1,3.7601147E1,0E0,0E0,0E0,0E0,0E0,0E0,0E0,0E0,0E0,0E0,0E0,0E0,0E0,0E0,0E0,0E0,0E0,0E0,0E0,0E0,0E0,0E0,0E0,0E0,0E0,0E0,0E0,0E0,0E0,0E0,0E0,0E0,0E0,0E0,0E0,0E0,0E0,0E0,0E0,0E0,0E0,0E0,0E0,0E0,0E0,0E0,0E0,0E0,0E0,0E0,0E0,0E0,0E0,0E0,0E0,0E0,0E0,0E0,0E0,0E0,0E0,0E0],"parents":[2147483647,0,0,1,1,2,2,3,3,4,4,5,5,6,6,7,7,8,8,9,9,10,10,11,11,12,12,13,13,14,14,15,15,16,16,17,17,18,18,19,19,20,20,21,21,22,22,23,23,24,24,25,25,26,26,27,27,28,28,29,29,30,30,31,31,32,32,33,33,34,34,35,35,36,36,37,37,38,38,39,39,40,40,41,41,42,42,43,43,44,44,46,46,47,47,48,48,49,49,50,50,51,51,52,52,53,53,54,54,55,55,56,56,57,57,58,58,59,59,60,60,61,61,62,62],"right_children":[2,4,6,8,10,12,14,16,18,20,22,24,26,28,30,32,34,36,38,40,42,44,46,48,50,52,54,56,58,60,62,64,66,68,70,72,74,76,78,80,82,84,86,88,90,-1,92,94,96,98,100,102,104,106,108,110,112,114,116,118,120,122,124,-1,-1,-1,-1,-1,-1,-1,-1,-1,-1,-1,-1,-1,-1,-1,-1,-1,-1,-1,-1,-1,-1,-1,-1,-1,-1,-1,-1,-1,-1,-1,-1,-1,-1,-1,-1,-1,-1,-1,-1,-1,-1,-1,-1,-1,-1,-1,-1,-1,-1,-1,-1,-1,-1,-1,-1,-1,-1,-1,-1,-1,-1],"split_conditions":[2.1E2,0E0,-1E0,1E-45,1E0,1E-45,7.3E2,5.1E1,2E0,3.1E1,1E-45,2.7666667E0,3E0,1E0,3.2833333E0,3E0,1.02E2,5.9716667E1,9.3E1,1E-45,1.3E1,4.45E0,4E0,6.96E2,1E0,1E0,5E0,9.7E1,0E0,0E0,7.41E2,1E0,-7.71E2,-1.047E3,-9.86E2,1.64E2,9E0,-1.068E3,1.3E1,4.0833335E0,3.35E0,1.5833334E0,1.27E2,3.7035217E0,2E0,-1.334313E-1,1.3E1,1E0,5E0,3.64E2,3.64E2,7.18E2,-3.33E2,1E0,2.7719636E0,1.5833334E0,2.77E2,3.35E0,1E-45,1.3166667E0,7E0,9E0,1.091E3,-8.349119E-2,-4.3097004E-2,2.094509E-2,-1.2488059E-2,-2.3977218E-2,-7.166407E-2,3.5239148E-3,-3.6632046E-2,-8.195151E-2,-1.0834014E-1,2.4833316E-2,-5.575434E-2,-1.2937534E-2,-4.5614354E-2,-3.469024E-2,-8.3581485E-2,-1.0160222E-1,-5.797423E-2,-1.2640862E-1,-1.0761263E-1,-8.3193205E-2,-2.6379922E-2,-8.206518E-2,-1.2426938E-1,2.5518939E-2,-9.244235E-2,-8.858534E-2,-1.2838213E-1,-1.0390108E-1,-1.2392434E-1,-9.181055E-3,3.7024703E-2,3.0159518E-2,6.169671E-2,3.8449E-2,7.334298E-2,7.938318E-3,4.1167825E-2,-2.3236671E-2,4.6158273E-2,4.680098E-2,1.2649867E-2,6.692917E-2,2.7615372E-2,4.73208E-2,2.1210222E-2,-6.110838E-2,-2.4253946E-2,-9.079279E-2,-3.5828788E-2,-8.42685E-2,-3.175051E-2,-7.600952E-2,-1.1018651E-1,-4.2461593E-2,4.412807E-2,-1.0663898E-1,-4.301926E-2,-1.2488267E-3,7.037628E-2,-4.928509E-2,1.5467535E-2],"split_indices":[2,14,14,5,11,5,2,2,2,2,5,13,13,11,13,13,2,13,0,5,14,13,2,2,9,9,4,0,14,14,2,11,14,14,14,0,4,14,2,13,13,13,0,7,14,0,2,9,0,2,2,2,14,9,7,13,14,13,5,13,14,0,2,0,0,0,0,0,0,0,0,0,0,0,0,0,0,0,0,0,0,0,0,0,0,0,0,0,0,0,0,0,0,0,0,0,0,0,0,0,0,0,0,0,0,0,0,0,0,0,0,0,0,0,0,0,0,0,0,0,0,0,0,0,0],"split_type":[0,0,0,1,0,1,0,0,0,0,1,0,0,0,0,0,0,0,0,1,0,0,0,0,0,0,0,0,0,0,0,0,0,0,0,0,0,0,0,0,0,0,0,0,0,0,0,0,0,0,0,0,0,0,0,0,0,0,1,0,0,0,0,0,0,0,0,0,0,0,0,0,0,0,0,0,0,0,0,0,0,0,0,0,0,0,0,0,0,0,0,0,0,0,0,0,0,0,0,0,0,0,0,0,0,0,0,0,0,0,0,0,0,0,0,0,0,0,0,0,0,0,0,0,0],"sum_hessian":[5.1254492E4,2.4157656E4,2.7096836E4,2.1408455E4,2.7492007E3,2.3864035E4,3.2328005E3,1.5626917E4,5.7815376E3,1.4880762E3,1.2611246E3,1.3849727E4,1.001431E4,2.580619E3,6.5218164E2,1.2024157E4,3.6027603E3,1.4252448E3,4.356293E3,7.369439E2,7.511322E2,2.2950798E2,1.0316167E3,1.441484E3,1.2408243E4,1.0840996E3,8.930209E3,1.4463845E3,1.1342344E3,1.6133582E2,4.9084583E2,1.2851332E3,1.0739023E4,2.104837E3,1.4979235E3,1.3668279E3,5.841686E1,2.8164695E3,1.5398234E3,3.168825E2,4.200614E2,4.0831854E2,3.4281366E2,1.288328E2,1.00675186E2,2.7047433E2,7.6114233E2,1.0567104E3,3.8477353E2,9.058283E3,3.3499597E3,7.871565E2,2.9694315E2,1.4353893E3,7.4948203E3,1.01885223E3,4.2753235E2,2.2657132E2,9.076631E2,2.5231398E1,1.3610442E2,1.07699066E2,3.8314676E2,6.51425E2,6.3370825E2,5.3203394E3,5.418684E3,3.629859E2,1.741851E3,2.2839279E2,1.2695308E3,1.0400566E3,3.2677115E2,2.277258E1,3.564428E1,4.7910266E2,2.3373667E3,6.552389E2,8.845845E2,2.5211021E2,6.477229E1,3.0850195E2,1.1155947E2,1.4074165E2,2.675769E2,2.4910698E2,9.370668E1,6.1824975E0,1.226503E2,2.8649933E1,7.202525E1,1.324331E2,6.287092E2,7.649706E2,2.917399E2,1.5323996E2,2.3153357E2,1.7068864E3,7.351397E3,5.637441E2,2.7862156E3,7.2469727E2,6.245923E1,1.558571E2,1.4108604E2,1.1100449E3,3.2534442E2,1.7306497E3,5.7641704E3,4.7563446E2,5.432177E2,3.6867368E2,5.8858665E1,7.3335625E1,1.532357E2,3.645722E2,5.430909E2,1.57505245E1,9.480874E0,6.791164E1,6.819279E1,3.1529581E1,7.616948E1,2.414369E2,1.4170984E2],"tree_param":{"num_deleted":"0","num_feature":"15","num_nodes":"125","size_leaf_vector":"1"}},{"base_weights":[-9.459334E-4,-3.174913E-1,2.7698687E-1,-2.3577343E-1,-9.766233E-1,3.9273146E-1,-4.9522883E-1,-1.3201399E-1,-5.202825E-1,-8.268648E-1,-1.1556296E0,6.472085E-1,3.333196E-1,-1.5496807E-1,-6.161522E-1,-2.8737029E-2,-4.78952E-1,-7.7841085E-1,-4.3598753E-1,-1.0424196E0,-6.1979645E-1,-1.0160555E0,-1.1912844E0,2.241074E-1,6.9956034E-1,-1.9158429E-2,3.7374058E-1,2.62967E-1,-2.2793874E-1,-8.722482E-1,-3.8549498E-1,-5.81744E-1,3.6490362E-2,-2.5157526E-1,-5.7047594E-1,-1.0332386E0,-7.288906E-1,-2.894779E-1,-5.2681136E-1,-9.0785146E-1,-1.1438737E0,-4.1334787E-1,-8.7199944E-1,-8.833055E-1,-1.1637739E0,-1.1946878E0,-2.679543E-2,-9.556467E-2,4.219736E-1,9.0287817E-1,6.0911834E-1,-1.5602078E-1,2.6511544E-1,4.8093587E-1,2.5843558E-1,-1.5272557E-2,4.3087023E-1,-8.2899666E-1,-1.8161874E-1,-9.777134E-1,-7.0056885E-1,-1.6018385E-1,-5.9685534E-1,-7.656327E-2,-3.9237995E-2,-1.692838E-2,1.581847E-2,-7.646839E-2,-2.0728512E-2,-6.43109E-2,-3.268847E-2,-4.538968E-2,-1.0756556E-1,-5.9540268E-2,-8.275503E-2,-5.0546378E-2,-1.2187877E-2,-3.708057E-2,-6.373294E-2,-1.0511277E-1,-7.6637365E-2,-1.1975314E-1,-9.269466E-2,2.7793646E-2,-5.3677607E-2,-6.296027E-2,-9.8313086E-2,-1.008994E-1,-5.0458502E-2,-1.19083874E-1,-3.2311793E-2,-1.2971248E-1,-1.1558167E-1,-2.7784755E-2,3.8078696E-2,6.559764E-2,1.759304E-2,9.431111E-2,7.004791E-2,2.801365E-2,6.6501E-2,-4.1411735E-2,1.2297811E-3,4.1714173E-2,8.231748E-3,5.6945164E-2,3.6501385E-2,4.670689E-2,1.738341E-2,8.658417E-3,-5.999893E-2,-3.2462712E-2,5.0127823E-2,-1.6748339E-2,-1.0281201E-1,-2.5513956E-2,1.095327E-2,-8.776607E-2,-1.0517009E-1,-4.766191E-2,-8.6191006E-2,-5.606314E-2,-6.7351195E-3,-9.120721E-2,-4.74993E-2],"categories":[4,6,8,1,2,3,4,6,8,1,2,3,4,5,7,1,2,3,4,5,6,8,1,2,3,4,1,2,3,4,5,6,7,8,10,1,3,6,8,0,1,2,4,8,10,0,5,6,7,8,9,10,1,2,3,8,10],"categories_nodes":[3,5,10,13,19,24,30,35,42,53,59],"categories_segments":[0,3,9,15,22,26,35,37,39,45,52],"categories_sizes":[3,6,6,7,4,9,2,2,6,7,5],"default_left":[0,0,0,1,0,1,0,0,0,0,1,0,0,1,0,0,0,0,0,1,0,0,0,0,1,0,0,0,0,0,1,0,0,0,0,1,0,0,0,0,0,0,1,0,0,0,0,0,0,0,0,0,0,1,0,0,0,0,0,1,0,0,0,0,0,0,0,0,0,0,0,0,0,0,0,0,0,0,0,0,0,0,0,0,0,0,0,0,0,0,0,0,0,0,0,0,0,0,0,0,0,0,0,0,0,0,0,0,0,0,0,0,0,0,0,0,0,0,0,0,0,0,0,0,0],"id":8,"left_children":[1,3,5,7,9,11,13,15,17,19,21,23,25,27,29,31,33,35,37,39,41,43,45,47,49,51,53,55,57,59,61,63,65,67,69,71,73,75,77,79,81,83,85,87,89,91,-1,93,95,97,99,101,103,105,107,109,111,113,115,117,119,121,123,-1,-1,-1,-1,-1,-1,-1,-1,-1,-1,-1,-1,-1,-1,-1,-1,-1,-1,-1,-1,-1,-1,-1,-1,-1,-1,-1,-1,-1,-1,-1,-1,-1,-1,-1,-1,-1,-1,-1,-1,-1,-1,-1,-1,-1,-1,-1,-1,-1,-1,-1,-1,-1,-1,-1,-1,-1,-1,-1,-1,-1,-1],"loss_changes":[4.466686E3,1.2782761E3,2.416484E3,6.233883E2,6.922363E1,3.5524072E2,1.4491309E2,5.5453485E2,1.2245801E2,6.3131897E1,4.7113037E0,9.838818E1,2.7160327E2,2.8282202E1,1.5323938E2,4.3026608E2,7.373883E1,1.676233E1,5.6487427E1,8.499756E0,3.771402E1,3.8534546E0,2.6402588E0,3.1118914E1,7.22428E1,7.63796E1,2.1125415E2,6.4546003E0,2.1798988E1,2.1607544E1,6.513046E1,4.3522827E1,2.67224E2,2.3037735E1,4.4562256E1,5.002716E0,1.4857605E1,5.8983765E1,4.504669E1,5.3800507E0,3.4815674E0,3.4620583E1,8.2234955E0,5.9291916E0,2.2242584E0,2.2368164E0,0E0,1.6487864E1,1.7368713E1,9.247009E0,5.02489E1,5.756978E1,1.769632E1,9.071753E1,1.4538348E2,3.2031012E0,4.743312E0,7.2212486E0,1.5723896E1,4.7041016E0,1.6645615E1,2.4658129E1,2.6699677E1,0E0,0E0,0E0,0E0,0E0,0E0,0E0,0E0,0E0,0E0,0E0,0E0,0E0,0E0,0E0,0E0,0E0,0E0,0E0,0E0,0E0,0E0,0E0,0E0,0E0,0E0,0E0,0E0,0E0,0E0,0E0,0E0,0E0,0E0,0E0,0E0,0E0,0E0,0E0,0E0,0E0,0E0,0E0,0E0,0E0,0E0,0E0,0E0,0E0,0E0,0E0,0E0,0E0,0E0,0E0,0E0,0E0,0E0,0E0,0E0,0E0,0E0],"parents":[2147483647,0,0,1,1,2,2,3,3,4,4,5,5,6,6,7,7,8,8,9,9,10,10,11,11,12,12,13,13,14,14,15,15,16,16,17,17,18,18,19,19,20,20,21,21,22,22,23,23,24,24,25,25,26,26,27,27,28,28,29,29,30,30,31,31,32,32,33,33,34,34,35,35,36,36,37,37,38,38,39,39,40,40,41,41,42,42,43,43,44,44,45,45,47,47,48,48,49,49,50,50,51,51,52,52,53,53,54,54,55,55,56,56,57,57,58,58,59,59,60,60,61,61,62,62],"right_children":[2,4,6,8,10,12,14,16,18,20,22,24,26,28,30,32,34,36,38,40,42,44,46,48,50,52,54,56,58,60,62,64,66,68,70,72,74,76,78,80,82,84,86,88,90,92,-1,94,96,98,100,102,104,106,108,110,112,114,116,118,120,122,124,-1,-1,-1,-1,-1,-1,-1,-1,-1,-1,-1,-1,-1,-1,-1,-1,-1,-1,-1,-1,-1,-1,-1,-1,-1,-1,-1,-1,-1,-1,-1,-1,-1,-1,-1,-1,-1,-1,-1,-1,-1,-1,-1,-1,-1,-1,-1,-1,-1,-1,-1,-1,-1,-1,-1,-1,-1,-1,-1,-1,-1,-1],"split_conditions":[2.06E2,0E0,-3E0,1E-45,1E0,1E-45,0E0,4.9E1,2E0,3.1E1,1E-45,2.3E0,3E0,1E-45,1E0,3E0,-9.45E2,2.8833334E0,1.3E1,1E-45,1.3E1,1.7E1,1E0,4.82E2,1E-45,1E0,-4E2,3.2E0,4.3333334E-1,3.5833333E0,1E-45,1E0,5E0,3.5833333E0,1.5E2,1E-45,-8.71E2,6E0,1.6716667E1,1.3166667E0,4.35E0,2E0,1E-45,6E0,5.2E1,4E0,-2.679543E-2,1E0,-3.08E2,1E0,3.69E2,9.6666664E-1,-3.38E2,1E-45,2.9439125E0,4.11071E0,3.78E2,8E0,7.3E2,1E-45,3.3318472E0,3.81E2,3.81E2,-7.656327E-2,-3.9237995E-2,-1.692838E-2,1.581847E-2,-7.646839E-2,-2.0728512E-2,-6.43109E-2,-3.268847E-2,-4.538968E-2,-1.0756556E-1,-5.9540268E-2,-8.275503E-2,-5.0546378E-2,-1.2187877E-2,-3.708057E-2,-6.373294E-2,-1.0511277E-1,-7.6637365E-2,-1.1975314E-1,-9.269466E-2,2.7793646E-2,-5.3677607E-2,-6.296027E-2,-9.8313086E-2,-1.008994E-1,-5.0458502E-2,-1.19083874E-1,-3.2311793E-2,-1.2971248E-1,-1.1558167E-1,-2.7784755E-2,3.8078696E-2,6.559764E-2,1.759304E-2,9.431111E-2,7.004791E-2,2.801365E-2,6.6501E-2,-4.1411735E-2,1.2297811E-3,4.1714173E-2,8.231748E-3,5.6945164E-2,3.6501385E-2,4.670689E-2,1.738341E-2,8.658417E-3,-5.999893E-2,-3.2462712E-2,5.0127823E-2,-1.6748339E-2,-1.0281201E-1,-2.5513956E-2,1.095327E-2,-8.776607E-2,-1.0517009E-1,-4.766191E-2,-8.6191006E-2,-5.606314E-2,-6.7351195E-3,-9.120721E-2,-4.74993E-2],"split_indices":[2,14,14,5,11,5,14,2,2,2,5,13,13,5,14,13,14,13,2,5,14,2,12,2,5,10,14,13,13,13,5,11,2,13,2,5,14,2,13,13,13,1,5,2,1,2,0,11,14,10,2,13,14,5,7,7,2,4,2,5,7,2,2,0,0,0,0,0,0,0,0,0,0,0,0,0,0,0,0,0,0,0,0,0,0,0,0,0,0,0,0,0,0,0,0,0,0,0,0,0,0,0,0,0,0,0,0,0,0,0,0,0,0,0,0,0,0,0,0,0,0,0,0,0,0],"split_type":[0,0,0,1,0,1,0,0,0,0,1,0,0,1,0,0,0,0,0,1,0,0,0,0,1,0,0,0,0,0,1,0,0,0,0,1,0,0,0,0,0,0,1,0,0,0,0,0,0,0,0,0,0,1,0,0,0,0,0,1,0,0,0,0,0,0,0,0,0,0,0,0,0,0,0,0,0,0,0,0,0,0,0,0,0,0,0,0,0,0,0,0,0,0,0,0,0,0,0,0,0,0,0,0,0,0,0,0,0,0,0,0,0,0,0,0,0,0,0,0,0,0,0,0,0],"sum_hessian":[5.0768285E4,2.3735324E4,2.703296E4,2.1118459E4,2.6168667E3,2.3509672E4,3.523287E3,1.5475913E4,5.6425454E3,1.4278944E3,1.1889722E3,4.44796E3,1.9061713E4,9.244112E2,2.598876E3,1.1926654E4,3.5492588E3,1.3870085E3,4.255537E3,6.976344E2,7.3026E2,2.4792891E2,9.4104333E2,4.9034323E2,3.9576167E3,1.9611001E3,1.7100613E4,1.3702203E2,7.8738916E2,1.2302086E3,1.3686674E3,1.2574972E3,1.0669156E4,1.01970715E3,2.5295518E3,2.2244707E2,1.1645615E3,1.6301301E3,2.625407E3,3.0415445E2,3.9347992E2,4.0300598E2,3.2725406E2,1.3425645E2,1.13672455E2,9.372945E2,3.74881E0,1.876666E2,3.0267664E2,1.215695E3,2.7419219E3,1.3240793E3,6.3702075E2,8.860307E3,8.240307E3,5.1909557E1,8.511248E1,5.5128838E1,7.322603E2,7.5915393E2,4.710547E2,6.633215E2,7.0534595E2,6.3642804E2,6.210692E2,3.9647424E3,6.704414E3,7.973213E1,9.3997504E2,1.9472799E3,5.8227185E2,1.5973763E1,2.0647331E2,4.9791306E2,6.6664844E2,7.113691E2,9.18761E2,1.09047E3,1.5349369E3,1.4792224E2,1.5623221E2,3.1182788E2,8.165206E1,6.086538E1,3.421406E2,1.04967384E2,2.2228668E2,9.955293E1,3.4703518E1,1.09723366E2,3.949087E0,2.4892819E2,6.8836633E2,1.360296E2,5.1636997E1,1.5428021E2,1.4839642E2,1.0110571E3,2.0463776E2,3.9905746E2,2.3428643E3,5.220766E2,8.0200275E2,3.4708282E2,2.8993793E2,5.021826E3,3.8384805E3,2.376115E3,5.8641914E3,4.493404E1,6.9755173E0,6.9479837E0,7.816449E1,1.3180995E1,4.194784E1,5.8472955E2,1.4753076E2,3.281978E2,4.3095612E2,1.9891068E2,2.72144E2,1.2388517E2,5.394363E2,1.9485005E2,5.1049588E2],"tree_param":{"num_deleted":"0","num_feature":"15","num_nodes":"125","size_leaf_vector":"1"}},{"base_weights":[-2.1405886E-3,8.032037E-2,-7.4235183E-1,3.7662494E-1,-2.479672E-3,-5.574079E-1,-8.930745E-1,-5.7273395E-2,4.6840197E-1,7.791182E-2,-1.627751E-1,-7.3352975E-1,-3.9296415E-1,-9.3811595E-1,-4.5489234E-1,2.4175048E-1,-1.5811135E-1,8.08517E-1,4.0085337E-1,-3.5353947E-1,1.1879854E-1,-2.1455367E-1,2.8156722E-1,-8.9411414E-1,-4.905388E-1,2.7022624E-1,-4.5931372E-1,-8.180241E-1,-1.0641686E0,-7.5406015E-1,-3.1689802E-1,4.3504972E-2,4.7263083E-1,-2.7662122E-1,3.3151526E-2,8.855845E-1,6.962825E-1,4.451455E-1,-3.5548925E-2,-4.8139125E-1,3.7020725E-1,4.844966E-1,9.031567E-2,-1.261539E-1,-4.032597E-1,5.7856816E-1,1.5377235E-1,-8.2708186E-1,-1.045652E0,-7.52874E-2,-6.8151355E-1,1.081335E-1,1.0380534E0,-3.189186E-2,-5.0209177E-1,-6.9959605E-1,-1.0385115E0,-1.0756274E0,-3.0188203E-1,-9.322907E-1,-3.84296E-1,-2.1088805E-2,-5.600299E-1,2.8996209E-2,-1.5703358E-2,6.299897E-2,6.6488964E-4,-3.505894E-2,1.1134814E-2,1.0720814E-2,-5.0488193E-2,1.01837635E-1,8.1265844E-2,7.203684E-2,1.1330823E-2,4.9298823E-2,8.307588E-3,-8.966721E-4,-1.0009705E-1,-1.8779071E-2,-5.418856E-2,6.41238E-2,2.6249174E-2,3.3882152E-2,5.706329E-2,-4.3535135E-3,1.5439726E-2,-2.7830675E-2,1.0930999E-4,-7.221305E-3,-4.6241224E-2,6.373444E-2,-2.451188E-2,3.0602029E-2,-4.0692315E-3,-4.87006E-2,-8.7517954E-2,-1.07100144E-1,-5.3468863E-3,1.6272044E-2,-5.6040794E-2,-1.0778611E-2,-7.677217E-2,2.1723012E-2,-6.1671007E-2,5.4988313E-2,1.3217448E-1,-4.498313E-2,2.8084403E-2,-3.8708445E-2,-6.4889625E-2,-8.335593E-2,-2.5473699E-2,-1.08452536E-1,-7.793244E-2,-7.3611625E-2,-1.0926348E-1,7.496669E-2,-6.106016E-2,7.1237655E-3,-1.0355314E-1,3.357685E-2,-6.65422E-2,-4.5556318E-2,1.7895717E-2,-1.36277E-2,-8.317324E-2],"categories":[1,3,3,6,8,1,2,3,6,8,1,2,3,6,8,10,1,2,3,4,5,6,8,10,2,4,5,6,7,8,10,8,1,2,4,5,6,8,2,4,5,6,7,10,7,9],"categories_nodes":[2,4,7,8,20,26,38,39,44,50,51],"categories_segments":[0,2,5,10,16,24,31,32,36,38,44],"categories_sizes":[2,3,5,6,8,7,1,4,2,6,2],"default_left":[0,0,1,0,1,0,0,1,1,0,0,0,0,0,0,0,0,0,0,0,1,0,0,0,0,0,1,0,0,0,0,0,0,0,0,0,0,0,1,1,0,0,0,0,1,0,0,0,0,0,1,1,0,0,0,0,0,0,0,0,0,0,0,0,0,0,0,0,0,0,0,0,0,0,0,0,0,0,0,0,0,0,0,0,0,0,0,0,0,0,0,0,0,0,0,0,0,0,0,0,0,0,0,0,0,0,0,0,0,0,0,0,0,0,0,0,0,0,0,0,0,0,0,0,0,0,0],"id":9,"left_children":[1,3,5,7,9,11,13,15,17,19,21,23,25,27,29,31,33,35,37,39,41,43,45,47,49,51,53,55,57,59,61,63,65,67,69,71,73,75,77,79,81,83,85,87,89,91,93,95,97,99,101,103,105,107,109,111,113,115,117,119,121,123,125,-1,-1,-1,-1,-1,-1,-1,-1,-1,-1,-1,-1,-1,-1,-1,-1,-1,-1,-1,-1,-1,-1,-1,-1,-1,-1,-1,-1,-1,-1,-1,-1,-1,-1,-1,-1,-1,-1,-1,-1,-1,-1,-1,-1,-1,-1,-1,-1,-1,-1,-1,-1,-1,-1,-1,-1,-1,-1,-1,-1,-1,-1,-1,-1],"loss_changes":[3.0655144E3,1.1086582E3,1.3982861E2,3.930537E2,4.5515912E2,6.52558E1,5.428247E1,5.202238E1,1.8683826E2,4.1501044E2,2.7149E2,4.2155884E1,5.1716995E1,3.716626E1,1.0507965E1,1.9897194E1,2.9245697E1,1.105072E1,1.3142944E2,1.8862007E2,2.2377753E2,1.762196E2,4.6660393E1,5.799011E0,3.456935E1,1.3237898E1,1.947931E1,3.2986206E1,1.0354614E1,5.0093956E0,1.2924747E1,1.1671516E1,1.4729446E1,2.2896538E1,1.9751585E1,6.8814087E0,7.694916E0,1.0687903E2,1.6091316E1,3.064624E1,8.774097E0,1.9286743E1,1.7100948E2,1.3934758E2,6.596796E1,1.8077843E1,2.55489E1,7.0917053E0,4.907837E0,1.6100262E1,1.4701462E1,7.2260194E0,1.8464603E0,1.2944832E1,1.6111816E1,5.0026215E1,4.5106506E0,6.1481934E0,6.786909E0,5.6949844E0,5.930186E0,7.224612E0,1.1249041E1,0E0,0E0,0E0,0E0,0E0,0E0,0E0,0E0,0E0,0E0,0E0,0E0,0E0,0E0,0E0,0E0,0E0,0E0,0E0,0E0,0E0,0E0,0E0,0E0,0E0,0E0,0E0,0E0,0E0,0E0,0E0,0E0,0E0,0E0,0E0,0E0,0E0,0E0,0E0,0E0,0E0,0E0,0E0,0E0,0E0,0E0,0E0,0E0,0E0,0E0,0E0,0E0,0E0,0E0,0E0,0E0,0E0,0E0,0E0,0E0,0E0,0E0,0E0,0E0],"parents":[2147483647,0,0,1,1,2,2,3,3,4,4,5,5,6,6,7,7,8,8,9,9,10,10,11,11,12,12,13,13,14,14,15,15,16,16,17,17,18,18,19,19,20,20,21,21,22,22,23,23,24,24,25,25,26,26,27,27,28,28,29,29,30,30,31,31,32,32,33,33,34,34,35,35,36,36,37,37,38,38,39,39,40,40,41,41,42,42,43,43,44,44,45,45,46,46,47,47,48,48,49,49,50,50,51,51,52,52,53,53,54,54,55,55,56,56,57,57,58,58,59,59,60,60,61,61,62,62],"right_children":[2,4,6,8,10,12,14,16,18,20,22,24,26,28,30,32,34,36,38,40,42,44,46,48,50,52,54,56,58,60,62,64,66,68,70,72,74,76,78,80,82,84,86,88,90,92,94,96,98,100,102,104,106,108,110,112,114,116,118,120,122,124,126,-1,-1,-1,-1,-1,-1,-1,-1,-1,-1,-1,-1,-1,-1,-1,-1,-1,-1,-1,-1,-1,-1,-1,-1,-1,-1,-1,-1,-1,-1,-1,-1,-1,-1,-1,-1,-1,-1,-1,-1,-1,-1,-1,-1,-1,-1,-1,-1,-1,-1,-1,-1,-1,-1,-1,-1,-1,-1,-1,-1,-1,-1,-1,-1],"split_conditions":[0E0,2.999E1,1E-45,3E0,1E-45,1E0,3.48E2,1E-45,1E-45,2.7666667E0,2.55E2,2.65E0,1.499E1,1E0,2E0,1E0,1.45E0,-3.23E2,-2E1,2.16E2,1E-45,9.3E1,-5.26E2,1.01E2,2E0,3.025E1,1E-45,8.6E1,1.448E2,8.1E2,1.95E2,4.3E1,-1.05E2,1E0,-6E0,1.499E1,1E0,1E0,1E-45,1E-45,-5.09E2,-6.66E2,4E0,4E0,1E-45,5.36E2,1.3E1,1E0,1.9E2,1E0,1E-45,1E-45,3E0,1.5833334E0,1E0,5E0,9.7E1,1.499E1,1.6411667E2,3.68E2,1E1,1.6716667E1,5.999E1,2.8996209E-2,-1.5703358E-2,6.299897E-2,6.6488964E-4,-3.505894E-2,1.1134814E-2,1.0720814E-2,-5.0488193E-2,1.01837635E-1,8.1265844E-2,7.203684E-2,1.1330823E-2,4.9298823E-2,8.307588E-3,-8.966721E-4,-1.0009705E-1,-1.8779071E-2,-5.418856E-2,6.41238E-2,2.6249174E-2,3.3882152E-2,5.706329E-2,-4.3535135E-3,1.5439726E-2,-2.7830675E-2,1.0930999E-4,-7.221305E-3,-4.6241224E-2,6.373444E-2,-2.451188E-2,3.0602029E-2,-4.0692315E-3,-4.87006E-2,-8.7517954E-2,-1.07100144E-1,-5.3468863E-3,1.6272044E-2,-5.6040794E-2,-1.0778611E-2,-7.677217E-2,2.1723012E-2,-6.1671007E-2,5.4988313E-2,1.3217448E-1,-4.498313E-2,2.8084403E-2,-3.8708445E-2,-6.4889625E-2,-8.335593E-2,-2.5473699E-2,-1.08452536E-1,-7.793244E-2,-7.3611625E-2,-1.0926348E-1,7.496669E-2,-6.106016E-2,7.1237655E-3,-1.0355314E-1,3.357685E-2,-6.65422E-2,-4.5556318E-2,1.7895717E-2,-1.36277E-2,-8.317324E-2],"split_indices":[14,6,5,13,5,14,9,5,5,13,9,13,6,11,14,11,13,14,14,9,5,0,14,0,3,13,5,0,13,9,14,0,14,9,14,6,12,9,5,5,14,14,1,0,5,9,1,3,1,11,5,5,3,13,11,0,14,6,13,9,1,13,6,0,0,0,0,0,0,0,0,0,0,0,0,0,0,0,0,0,0,0,0,0,0,0,0,0,0,0,0,0,0,0,0,0,0,0,0,0,0,0,0,0,0,0,0,0,0,0,0,0,0,0,0,0,0,0,0,0,0,0,0,0,0,0,0],"split_type":[0,0,1,0,1,0,0,1,1,0,0,0,0,0,0,0,0,0,0,0,1,0,0,0,0,0,1,0,0,0,0,0,0,0,0,0,0,0,1,1,0,0,0,0,1,0,0,0,0,0,1,1,0,0,0,0,0,0,0,0,0,0,0,0,0,0,0,0,0,0,0,0,0,0,0,0,0,0,0,0,0,0,0,0,0,0,0,0,0,0,0,0,0,0,0,0,0,0,0,0,0,0,0,0,0,0,0,0,0,0,0,0,0,0,0,0,0,0,0,0,0,0,0,0,0,0,0],"sum_hessian":[5.022064E4,4.518755E4,5.0330894E3,9.868615E3,3.5318934E4,2.2620925E3,2.7709966E3,1.7230153E3,8.1455996E3,2.3522451E4,1.1796484E4,1.0905913E3,1.1715011E3,2.5116763E3,2.593203E2,4.34161E2,1.2888542E3,1.3478833E3,6.7977163E3,2.0354984E3,2.1486953E4,1.0565785E4,1.2306986E3,6.550269E2,4.355644E2,1.0626522E2,1.065236E3,1.2900857E3,1.2215907E3,8.0447655E1,1.7887265E2,2.3422879E2,1.9993222E2,7.955013E2,4.9335297E2,7.950556E2,5.528277E2,6.1713433E3,6.263729E2,1.7301906E3,3.0530786E2,1.5514553E3,1.9935498E4,7.196321E3,3.3694646E3,3.691801E2,8.615185E2,4.586172E2,1.9640977E2,1.3765172E2,2.979127E2,8.868429E1,1.7580935E1,9.707224E1,9.681637E2,8.420027E2,4.4808298E2,1.2030944E3,1.8496315E1,5.3256226E1,2.7191427E1,8.1184875E1,9.768778E1,1.0488352E2,1.2934528E2,1.4919736E2,5.0734863E1,6.682018E2,1.2729946E2,4.3436618E2,5.8986774E1,2.7724762E2,5.17808E2,5.3066724E2,2.2160486E1,5.450738E3,7.2060535E2,6.1057056E2,1.5802344E1,2.9629077E2,1.4338998E3,8.542095E1,2.1988692E2,5.783218E2,9.7313354E2,6.4543203E3,1.3481178E4,3.276878E3,3.9194429E3,5.1113318E2,2.8583313E3,3.4480212E2,2.4377987E1,4.8288803E2,3.786305E2,5.820469E1,4.0041248E2,1.9143922E2,4.970543E0,9.279137E1,4.4860344E1,3.921061E1,2.587021E2,7.769124E1,1.0993044E1,7.541679E0,1.0039256E1,4.13602E1,5.571204E1,5.4491296E2,4.232507E2,6.464571E2,1.9554558E2,3.778233E2,7.0259674E1,5.950471E1,1.1435897E3,3.8736668E0,1.4622649E1,4.996721E0,4.8259506E1,7.58055E0,1.9610876E1,2.5192556E1,5.5992317E1,3.8751568E1,5.893621E1],"tree_param":{"num_deleted":"0","num_feature":"15","num_nodes":"127","size_leaf_vector":"1"}},{"base_weights":[-1.8578006E-3,-2.786849E-1,2.4388593E-1,-6.965227E-1,-2.148629E-1,-1.8346736E-1,3.1618774E-1,-7.818067E-1,-5.2465755E-1,-1.3107263E-1,-4.92009E-1,-2.9269582E-1,1.4195116E-1,5.776872E-1,2.6863977E-1,-8.024256E-1,-4.9053937E-1,-7.3019505E-1,-4.450553E-1,-2.2607792E-2,-4.2959777E-1,-5.6911856E-1,-1.9662027E-1,-4.1095212E-1,-5.6762416E-2,2.0305575E-1,-9.329048E-2,6.501761E-1,3.4761062E-1,3.2563543E-1,1.118417E-1,-7.217691E-1,-8.7486506E-1,-2.0105224E-2,-6.1515677E-1,-9.69735E-1,-4.9463898E-1,-3.518757E-1,-7.2138625E-1,1.516125E-2,-5.788681E-1,-6.7855006E-1,-3.3443934E-1,-4.748201E-1,-8.314877E-1,-1.3537395E-1,-4.3795374E-1,-3.1139004E-1,-5.4143494E-1,3.5925946E-1,-1.3381562E-1,-3.3308058E-3,2.977814E-1,2.12757E-1,-2.1096337E-1,6.0801995E-1,1.0422773E0,5.687439E-1,2.669197E-1,2.9175723E-1,7.6978064E-1,-3.6319293E-2,1.9944246E-1,-8.828489E-2,-6.439436E-2,-8.842354E-2,-5.0281934E-3,5.4361243E-2,-3.4368444E-2,-6.893621E-2,2.3078497E-2,-9.0325154E-2,-1.3199556E-1,-3.1835265E-2,-8.950668E-2,-5.0715517E-2,-1.3016856E-2,-2.8487777E-3,-8.945723E-2,-1.9767879E-2,1.4543885E-2,-2.3148691E-2,-7.9635456E-2,-7.0741765E-2,-1.6729074E-2,-2.985765E-2,-6.634481E-2,-4.156828E-2,-8.842734E-2,-4.055166E-3,-8.5286714E-2,6.246002E-3,-2.1241078E-2,4.0292602E-2,-5.6375023E-2,-3.32946E-2,5.49747E-2,-6.010139E-2,-3.0335912E-2,1.43786175E-2,6.368935E-2,-1.8154891E-2,5.0352793E-2,6.711607E-3,-9.734588E-2,3.1676747E-2,-5.976097E-2,5.055933E-2,-2.4959989E-2,2.5725484E-2,-3.1283196E-2,7.586974E-2,5.1177867E-2,1.10589914E-1,8.3243385E-2,-1.9184828E-2,5.976816E-2,3.3034075E-2,7.0394836E-3,3.6766313E-2,2.0147214E-2,8.856549E-2,5.4130312E-2,-1.9113831E-2,8.059493E-3,3.4099918E-2,8.838988E-3],"categories":[1,2,3,6,8,10,4,6,8,1,2,4,8,1,3,5,1,2,3,4,6,7,8,10,1,2,6,10,1,2,3,4,5,6,7,8,10,3,6,1,2,3,4,5,6,7,8,10,0,4,5,6,7,8,9],"categories_nodes":[6,9,15,23,24,26,28,36,55,59],"categories_segments":[0,6,9,13,16,24,28,37,39,48],"categories_sizes":[6,3,4,3,8,4,9,2,9,7],"default_left":[0,0,0,0,0,0,1,0,0,1,0,0,0,0,0,1,0,0,0,0,0,0,0,1,1,0,1,0,1,0,0,0,0,0,0,0,1,0,0,0,0,0,0,0,0,0,0,0,0,0,0,0,0,0,0,1,0,0,0,1,0,0,0,0,0,0,0,0,0,0,0,0,0,0,0,0,0,0,0,0,0,0,0,0,0,0,0,0,0,0,0,0,0,0,0,0,0,0,0,0,0,0,0,0,0,0,0,0,0,0,0,0,0,0,0,0,0,0,0,0,0,0,0,0,0,0,0],"id":10,"left_children":[1,3,5,7,9,11,13,15,17,19,21,23,25,27,29,31,33,35,37,39,41,43,45,47,49,51,53,55,57,59,61,63,65,67,69,71,73,75,77,79,81,83,85,87,89,91,93,95,97,99,101,103,105,107,109,111,113,115,117,119,121,123,125,-1,-1,-1,-1,-1,-1,-1,-1,-1,-1,-1,-1,-1,-1,-1,-1,-1,-1,-1,-1,-1,-1,-1,-1,-1,-1,-1,-1,-1,-1,-1,-1,-1,-1,-1,-1,-1,-1,-1,-1,-1,-1,-1,-1,-1,-1,-1,-1,-1,-1,-1,-1,-1,-1,-1,-1,-1,-1,-1,-1,-1,-1,-1,-1],"loss_changes":[3.3884392E3,6.2448193E2,8.1534106E2,4.507483E1,4.7183173E2,1.357794E2,2.8045166E2,1.2050171E1,1.6563599E1,5.0526785E2,1.0733057E2,7.9756256E1,1.3823254E1,5.766858E1,1.7063733E2,1.0665039E1,8.168835E0,1.5692123E1,1.897055E1,2.4050673E2,9.8292725E1,9.213855E1,1.4396244E1,2.4573853E1,3.0688929E1,1.4910727E1,7.200821E0,4.297937E1,1.4726212E1,2.1052124E2,6.610742E1,1.0971588E1,7.789551E0,5.706371E0,7.082615E0,2.0921783E0,1.0059727E1,1.9223198E1,2.2453484E1,2.9728445E2,5.4805115E1,1.6840332E1,3.5325287E1,6.63078E1,1.6663757E1,1.1923452E1,2.1119942E1,2.0279549E1,1.1490372E1,8.860546E0,2.4648922E1,1.652941E1,9.075794E0,7.664983E0,6.9498363E0,3.4194214E1,2.4802856E0,5.00148E0,7.6143227E0,8.911975E1,2.5783875E1,3.42828E1,5.028531E1,0E0,0E0,0E0,0E0,0E0,0E0,0E0,0E0,0E0,0E0,0E0,0E0,0E0,0E0,0E0,0E0,0E0,0E0,0E0,0E0,0E0,0E0,0E0,0E0,0E0,0E0,0E0,0E0,0E0,0E0,0E0,0E0,0E0,0E0,0E0,0E0,0E0,0E0,0E0,0E0,0E0,0E0,0E0,0E0,0E0,0E0,0E0,0E0,0E0,0E0,0E0,0E0,0E0,0E0,0E0,0E0,0E0,0E0,0E0,0E0,0E0,0E0,0E0,0E0],"parents":[2147483647,0,0,1,1,2,2,3,3,4,4,5,5,6,6,7,7,8,8,9,9,10,10,11,11,12,12,13,13,14,14,15,15,16,16,17,17,18,18,19,19,20,20,21,21,22,22,23,23,24,24,25,25,26,26,27,27,28,28,29,29,30,30,31,31,32,32,33,33,34,34,35,35,36,36,37,37,38,38,39,39,40,40,41,41,42,42,43,43,44,44,45,45,46,46,47,47,48,48,49,49,50,50,51,51,52,52,53,53,54,54,55,55,56,56,57,57,58,58,59,59,60,60,61,61,62,62],"right_children":[2,4,6,8,10,12,14,16,18,20,22,24,26,28,30,32,34,36,38,40,42,44,46,48,50,52,54,56,58,60,62,64,66,68,70,72,74,76,78,80,82,84,86,88,90,92,94,96,98,100,102,104,106,108,110,112,114,116,118,120,122,124,126,-1,-1,-1,-1,-1,-1,-1,-1,-1,-1,-1,-1,-1,-1,-1,-1,-1,-1,-1,-1,-1,-1,-1,-1,-1,-1,-1,-1,-1,-1,-1,-1,-1,-1,-1,-1,-1,-1,-1,-1,-1,-1,-1,-1,-1,-1,-1,-1,-1,-1,-1,-1,-1,-1,-1,-1,-1,-1,-1,-1,-1,-1,-1,-1],"split_conditions":[2.1E2,2.7666667E0,2.7666667E0,1.5833334E0,5.1E1,1E0,1E-45,1E0,3E0,1E-45,1.56E2,1.45E0,4.9E1,2E0,1E0,1E-45,1.1E1,7E0,1.56E2,1E0,2E0,1.08E2,1.72E2,1E-45,1E-45,2.16E2,1E-45,7.3E2,1E-45,7.33E2,4E0,5E0,1.9E2,3E0,1.97E2,1.27E2,1E-45,4E0,9E0,5E0,1.1E1,3.8E1,3E0,4.2E1,3.35E0,1.445E1,5.999E1,1E2,3.4E1,1E0,5.9E1,2.01E2,1.091E3,7.04E2,1.06E2,1E-45,1.499E1,6E0,3E1,1E-45,7.38E2,3.45E2,5.66E2,-8.828489E-2,-6.439436E-2,-8.842354E-2,-5.0281934E-3,5.4361243E-2,-3.4368444E-2,-6.893621E-2,2.3078497E-2,-9.0325154E-2,-1.3199556E-1,-3.1835265E-2,-8.950668E-2,-5.0715517E-2,-1.3016856E-2,-2.8487777E-3,-8.945723E-2,-1.9767879E-2,1.4543885E-2,-2.3148691E-2,-7.9635456E-2,-7.0741765E-2,-1.6729074E-2,-2.985765E-2,-6.634481E-2,-4.156828E-2,-8.842734E-2,-4.055166E-3,-8.5286714E-2,6.246002E-3,-2.1241078E-2,4.0292602E-2,-5.6375023E-2,-3.32946E-2,5.49747E-2,-6.010139E-2,-3.0335912E-2,1.43786175E-2,6.368935E-2,-1.8154891E-2,5.0352793E-2,6.711607E-3,-9.734588E-2,3.1676747E-2,-5.976097E-2,5.055933E-2,-2.4959989E-2,2.5725484E-2,-3.1283196E-2,7.586974E-2,5.1177867E-2,1.10589914E-1,8.3243385E-2,-1.9184828E-2,5.976816E-2,3.3034075E-2,7.0394836E-3,3.6766313E-2,2.0147214E-2,8.856549E-2,5.4130312E-2,-1.9113831E-2,8.059493E-3,3.4099918E-2,8.838988E-3],"split_indices":[2,13,13,13,2,9,5,9,2,5,2,13,1,9,9,5,2,1,0,9,2,0,0,5,5,9,5,2,5,2,0,2,1,3,2,0,5,0,2,2,2,1,9,9,13,13,6,1,1,11,1,9,2,2,9,5,6,9,1,5,2,9,2,0,0,0,0,0,0,0,0,0,0,0,0,0,0,0,0,0,0,0,0,0,0,0,0,0,0,0,0,0,0,0,0,0,0,0,0,0,0,0,0,0,0,0,0,0,0,0,0,0,0,0,0,0,0,0,0,0,0,0,0,0,0,0,0],"split_type":[0,0,0,0,0,0,1,0,0,1,0,0,0,0,0,1,0,0,0,0,0,0,0,1,1,0,1,0,1,0,0,0,0,0,0,0,1,0,0,0,0,0,0,0,0,0,0,0,0,0,0,0,0,0,0,1,0,0,0,1,0,0,0,0,0,0,0,0,0,0,0,0,0,0,0,0,0,0,0,0,0,0,0,0,0,0,0,0,0,0,0,0,0,0,0,0,0,0,0,0,0,0,0,0,0,0,0,0,0,0,0,0,0,0,0,0,0,0,0,0,0,0,0,0,0,0,0],"sum_hessian":[4.9807094E4,2.342218E4,2.6384914E4,3.1022263E3,2.0319953E4,3.817765E3,2.2567148E4,2.0709954E3,1.0312308E3,1.560387E4,4.716084E3,2.8584211E3,9.5934375E2,3.4703152E3,1.9096834E4,1.9324421E3,1.3855324E2,2.8560635E2,7.4562445E2,1.144615E4,4.157719E3,3.739089E3,9.769946E2,1.9035618E3,9.548593E2,7.616422E2,1.9770157E2,2.6375056E3,8.328096E2,1.4004984E4,5.0918496E3,9.1954877E2,1.01289343E3,2.925942E1,1.09293816E2,1.4006036E2,1.45546E2,5.5930023E2,1.8632426E2,1.0719303E4,7.268481E2,1.1480568E3,3.0096624E3,2.752588E3,9.8650134E2,7.804824E2,1.9651222E2,1.0816322E3,8.219296E2,1.4864423E2,8.062151E2,2.3990543E2,5.2173676E2,5.468E1,1.4302158E2,2.383769E3,2.5373653E2,2.2102971E2,6.117799E2,1.3013971E4,9.910138E2,1.8921692E3,3.1996802E3,2.9618155E2,6.233672E2,1.0014409E3,1.1452476E1,1.0422338E1,1.8837084E1,1.0064998E2,8.643838E0,1.2072234E2,1.933802E1,1.0230275E2,4.324325E1,3.2816925E2,2.3113098E2,3.7491066E1,1.4883319E2,4.0697925E3,6.6495103E3,2.806473E2,4.4620074E2,1.0863346E3,6.1722225E1,2.715566E3,2.9409647E2,2.406965E3,3.4562274E2,2.604002E1,9.6046136E2,2.1879543E2,5.61687E2,2.5286045E1,1.7122617E2,1.0558164E3,2.581582E1,6.561918E2,1.6573785E2,8.454574E1,6.4098495E1,7.507067E2,5.5508377E1,2.2453163E2,1.5373784E1,5.115363E2,1.0200486E1,3.3419846E1,2.1260157E1,2.5283905E1,1.1773766E2,9.2643634E2,1.4573326E3,1.9142801E2,6.2308517E1,7.894789E0,2.1313493E2,4.6200436E2,1.4977551E2,7.068314E3,5.9456562E3,6.556295E2,3.3538428E2,8.138396E2,1.0783296E3,1.4057393E3,1.7939409E3],"tree_param":{"num_deleted":"0","num_feature":"15","num_nodes":"127","size_leaf_vector":"1"}},{"base_weights":[-9.95118E-4,-2.536629E-1,2.3018414E-1,-1.2037481E-1,-3.738686E-1,1.1622454E-1,2.5877804E-1,-3.549241E-1,2.309982E-1,-2.922272E-1,-6.1651856E-1,-1.00976355E-1,1.9416925E-1,2.815194E-1,4.3603018E-2,-4.809649E-1,-2.1319039E-1,-2.4410774E-1,2.961916E-1,-3.8413635E-1,-1.11022644E-1,-6.642414E-1,-1.5570596E-1,7.713508E-2,-3.505613E-1,1.0204575E-1,4.5674118E-1,2.3589264E-1,6.7626905E-1,-8.671978E-2,3.3783835E-1,-6.888099E-1,-3.816289E-1,-3.9064285E-1,-8.970543E-2,-7.9666555E-1,-1.9260737E-1,3.5548255E-1,-2.366438E-1,-3.4383586E-1,-6.7538357E-1,1.2468728E-1,-2.7807215E-1,-5.503226E-1,-7.4156123E-1,-2.4844036E-1,1.827312E-1,2.1668302E-2,3.1452507E-1,-2.5915048E-1,-6.781396E-1,1.780724E-1,-1.6412634E-1,5.7535994E-1,4.1789514E-1,2.8540286E-1,9.4590195E-2,7.381069E-1,2.5620043E-1,9.077444E-2,-1.5863541E-1,4.728132E-1,5.5120368E-2,-7.196682E-2,-3.2590367E-2,-5.56899E-2,-3.2017544E-2,-5.3275168E-2,-2.3700485E-2,-8.866529E-4,-3.518757E-2,-9.610404E-3,-9.8890625E-2,-4.6317592E-2,-1.482673E-2,5.978628E-3,4.064861E-2,1.3481678E-2,-3.0732542E-2,-4.550947E-2,-3.0565102E-2,-7.838928E-2,-2.942167E-2,-2.3624946E-4,3.9088637E-2,-3.652839E-2,-6.564901E-5,-7.2683565E-2,-3.5426054E-2,-7.7884726E-2,-5.290963E-2,-6.583339E-3,-4.1917574E-2,-3.983421E-3,7.639925E-2,9.531426E-3,-1.913677E-2,4.320812E-2,-5.7101264E-3,-4.8205737E-2,-4.1759345E-3,-7.6746136E-2,4.8477024E-2,5.81208E-3,2.8383303E-2,-2.6443386E-2,1.700217E-2,7.934073E-3,6.3011646E-2,4.409634E-2,1.3568843E-2,2.0510636E-2,3.7932005E-2,-7.458529E-4,2.3951806E-2,5.471095E-2,8.325666E-2,4.1201085E-2,5.549414E-4,5.42599E-3,5.450126E-2,-2.375436E-2,-4.4202395E-3,1.5647423E-2,7.739445E-2,-5.887535E-4,6.576751E-2],"categories":[],"categories_nodes":[],"categories_segments":[],"categories_sizes":[],"default_left":[0,0,0,0,0,0,0,0,0,0,0,0,0,0,0,0,0,0,0,0,0,0,0,0,0,0,0,0,0,0,0,0,0,0,0,0,0,0,0,0,0,0,0,0,0,0,0,0,0,0,0,0,0,0,0,0,0,0,0,0,0,0,0,0,0,0,0,0,0,0,0,0,0,0,0,0,0,0,0,0,0,0,0,0,0,0,0,0,0,0,0,0,0,0,0,0,0,0,0,0,0,0,0,0,0,0,0,0,0,0,0,0,0,0,0,0,0,0,0,0,0,0,0,0,0,0,0],"id":11,"left_children":[1,3,5,7,9,11,13,15,17,19,21,23,25,27,29,31,33,35,37,39,41,43,45,47,49,51,53,55,57,59,61,63,65,67,69,71,73,75,77,79,81,83,85,87,89,91,93,95,97,99,101,103,105,107,109,111,113,115,117,119,121,123,125,-1,-1,-1,-1,-1,-1,-1,-1,-1,-1,-1,-1,-1,-1,-1,-1,-1,-1,-1,-1,-1,-1,-1,-1,-1,-1,-1,-1,-1,-1,-1,-1,-1,-1,-1,-1,-1,-1,-1,-1,-1,-1,-1,-1,-1,-1,-1,-1,-1,-1,-1,-1,-1,-1,-1,-1,-1,-1,-1,-1,-1,-1,-1,-1],"loss_changes":[2.8756055E3,3.7682153E2,8.374158E1,9.194492E2,2.4482166E2,8.7350746E1,1.0055029E2,1.19413086E2,1.3840778E2,1.5410632E2,6.834717E1,6.0615646E1,9.178749E1,3.3459998E2,7.5399025E1,7.283307E1,6.900897E1,1.5197613E1,1.24171265E2,7.184235E1,1.2273538E2,2.4432861E1,9.253906E0,1.0476685E1,1.6825775E1,5.69283E1,4.301834E0,1.1653943E2,4.981909E1,1.7412449E1,2.3005219E1,1.2572571E1,2.564743E1,2.8095718E1,3.940111E1,6.0560493E0,5.8671646E0,5.3287018E1,1.0383347E1,2.2786194E1,3.0597809E1,4.3736595E1,4.412993E1,3.933783E1,1.2873901E1,7.165863E0,8.268735E0,1.0160673E1,6.609236E0,2.1568907E1,1.3174675E1,2.7734993E1,2.1000477E1,6.482895E0,4.7981567E0,9.2967834E1,6.396444E1,2.9810791E1,9.705235E0,6.499545E0,8.7514305E0,3.8781326E1,7.215007E0,0E0,0E0,0E0,0E0,0E0,0E0,0E0,0E0,0E0,0E0,0E0,0E0,0E0,0E0,0E0,0E0,0E0,0E0,0E0,0E0,0E0,0E0,0E0,0E0,0E0,0E0,0E0,0E0,0E0,0E0,0E0,0E0,0E0,0E0,0E0,0E0,0E0,0E0,0E0,0E0,0E0,0E0,0E0,0E0,0E0,0E0,0E0,0E0,0E0,0E0,0E0,0E0,0E0,0E0,0E0,0E0,0E0,0E0,0E0,0E0,0E0,0E0,0E0,0E0],"parents":[2147483647,0,0,1,1,2,2,3,3,4,4,5,5,6,6,7,7,8,8,9,9,10,10,11,11,12,12,13,13,14,14,15,15,16,16,17,17,18,18,19,19,20,20,21,21,22,22,23,23,24,24,25,25,26,26,27,27,28,28,29,29,30,30,31,31,32,32,33,33,34,34,35,35,36,36,37,37,38,38,39,39,40,40,41,41,42,42,43,43,44,44,45,45,46,46,47,47,48,48,49,49,50,50,51,51,52,52,53,53,54,54,55,55,56,56,57,57,58,58,59,59,60,60,61,61,62,62],"right_children":[2,4,6,8,10,12,14,16,18,20,22,24,26,28,30,32,34,36,38,40,42,44,46,48,50,52,54,56,58,60,62,64,66,68,70,72,74,76,78,80,82,84,86,88,90,92,94,96,98,100,102,104,106,108,110,112,114,116,118,120,122,124,126,-1,-1,-1,-1,-1,-1,-1,-1,-1,-1,-1,-1,-1,-1,-1,-1,-1,-1,-1,-1,-1,-1,-1,-1,-1,-1,-1,-1,-1,-1,-1,-1,-1,-1,-1,-1,-1,-1,-1,-1,-1,-1,-1,-1,-1,-1,-1,-1,-1,-1,-1,-1,-1,-1,-1,-1,-1,-1,-1,-1,-1,-1,-1,-1],"split_conditions":[2.18E2,1.3E1,3.81E2,5E0,1.16E2,1E0,7.51E2,7E0,2E0,4E0,1.97E2,3.76E2,3.64E2,7.3E2,1.036E3,1E0,1E0,1E0,1E0,3E0,5.1E1,1.91E2,3.8E1,3.64E2,1.73E2,3.22E2,6E0,1E2,7.41E2,8.31E2,1.122E3,2.2E1,2E0,1.7E1,2.21E2,5E0,1E0,1E0,6E0,1E0,1.5E2,5E0,1.2E1,1E1,4.8E1,1.3E1,5E0,1.32E2,1.8E1,5E0,1.39E2,5E0,3.5E2,2E0,3.67E2,4E0,2.1E1,1.4E1,4.9E1,4.26E2,9.32E2,1.091E3,4.5E2,-7.196682E-2,-3.2590367E-2,-5.56899E-2,-3.2017544E-2,-5.3275168E-2,-2.3700485E-2,-8.866529E-4,-3.518757E-2,-9.610404E-3,-9.8890625E-2,-4.6317592E-2,-1.482673E-2,5.978628E-3,4.064861E-2,1.3481678E-2,-3.0732542E-2,-4.550947E-2,-3.0565102E-2,-7.838928E-2,-2.942167E-2,-2.3624946E-4,3.9088637E-2,-3.652839E-2,-6.564901E-5,-7.2683565E-2,-3.5426054E-2,-7.7884726E-2,-5.290963E-2,-6.583339E-3,-4.1917574E-2,-3.983421E-3,7.639925E-2,9.531426E-3,-1.913677E-2,4.320812E-2,-5.7101264E-3,-4.8205737E-2,-4.1759345E-3,-7.6746136E-2,4.8477024E-2,5.81208E-3,2.8383303E-2,-2.6443386E-2,1.700217E-2,7.934073E-3,6.3011646E-2,4.409634E-2,1.3568843E-2,2.0510636E-2,3.7932005E-2,-7.458529E-4,2.3951806E-2,5.471095E-2,8.325666E-2,4.1201085E-2,5.549414E-4,5.42599E-3,5.450126E-2,-2.375436E-2,-4.4202395E-3,1.5647423E-2,7.739445E-2,-5.887535E-4,6.576751E-2],"split_indices":[2,2,2,2,0,11,2,1,1,0,2,2,2,2,2,2,2,3,9,9,0,0,1,2,0,2,4,0,2,2,2,4,1,1,0,4,11,11,2,11,2,1,1,1,1,4,3,0,4,0,1,0,2,1,9,0,1,0,0,0,2,2,0,0,0,0,0,0,0,0,0,0,0,0,0,0,0,0,0,0,0,0,0,0,0,0,0,0,0,0,0,0,0,0,0,0,0,0,0,0,0,0,0,0,0,0,0,0,0,0,0,0,0,0,0,0,0,0,0,0,0,0,0,0,0,0,0],"split_type":[0,0,0,0,0,0,0,0,0,0,0,0,0,0,0,0,0,0,0,0,0,0,0,0,0,0,0,0,0,0,0,0,0,0,0,0,0,0,0,0,0,0,0,0,0,0,0,0,0,0,0,0,0,0,0,0,0,0,0,0,0,0,0,0,0,0,0,0,0,0,0,0,0,0,0,0,0,0,0,0,0,0,0,0,0,0,0,0,0,0,0,0,0,0,0,0,0,0,0,0,0,0,0,0,0,0,0,0,0,0,0,0,0,0,0,0,0,0,0,0,0,0,0,0,0,0,0],"sum_hessian":[4.9228082E4,2.352084E4,2.5707242E4,1.1154434E4,1.2366407E4,5.157469E3,2.0549773E4,6.68922E3,4.4652134E3,9.254774E3,3.1116328E3,1.3619529E3,3.795516E3,1.8585234E4,1.9645392E3,3.5393542E3,3.149866E3,5.384487E2,3.9267646E3,6.1395835E3,3.1151904E3,2.8192258E3,2.9240695E2,7.9517944E2,5.6677344E2,2.8107512E3,9.8476495E2,1.6661076E4,1.9241575E3,1.3619911E3,6.0254816E2,1.1426355E3,2.3967188E3,1.2916105E3,1.8582555E3,4.467309E1,4.9377563E2,3.5338684E3,3.928962E2,5.395217E3,7.4436694E2,1.2921694E3,1.8230211E3,1.1431254E3,1.6761006E3,2.2972614E2,6.268082E1,6.454578E2,1.497216E2,4.445209E2,1.2225253E2,2.1865413E3,6.2420996E2,2.395309E2,7.452341E2,1.2337267E4,4.3238096E3,1.6765911E3,2.4756638E2,3.9264523E2,9.693458E2,4.073834E2,1.951648E2,1.0521842E3,9.045128E1,6.2009534E2,1.7766234E3,6.6969904E2,6.219114E2,1.4211001E3,4.3715536E2,9.942101E0,3.473099E1,6.8195045E1,4.255806E2,5.201925E2,3.013676E3,6.2663998E1,3.302322E2,1.3757609E3,4.0194558E3,5.7859735E2,1.6576959E2,8.7536975E2,4.1679965E2,1.3867493E3,4.362719E2,6.0012805E2,5.429973E2,1.4236027E3,2.5249786E2,1.1167342E2,1.1805271E2,4.5999172E1,1.668165E1,4.800563E2,1.6540155E2,1.1361822E2,3.6103382E1,2.1887503E2,2.2564587E2,1.13848045E2,8.404487E0,1.0252607E3,1.1612805E3,4.802522E2,1.4395775E2,2.4056925E1,2.1547398E2,6.884001E2,5.683396E1,6.652637E3,5.68463E3,2.5378032E3,1.7860065E3,5.57043E2,1.1195481E3,1.5226883E2,9.529755E1,3.6446655E2,2.8178679E1,5.7309076E2,3.9625507E2,1.9941605E2,2.0796733E2,1.7812054E2,1.704425E1],"tree_param":{"num_deleted":"0","num_feature":"15","num_nodes":"127","size_leaf_vector":"1"}},{"base_weights":[5.492373E-4,8.316615E-2,-6.1235625E-1,-1.5543929E-1,2.91128E-1,-7.5825036E-1,-4.1824302E-1,-6.995519E-2,-4.2113513E-1,3.8670558E-1,1.6965902E-1,-6.055063E-1,-9.5467997E-1,-5.588055E-1,-2.2679682E-1,1.1620459E-2,-3.726975E-1,-6.3280296E-1,-3.5445204E-1,4.7257122E-1,2.4106115E-1,3.9732584E-1,1.2695993E-1,-8.572223E-1,-4.831858E-1,-6.364622E-1,-1.013208E0,-2.0799991E-1,-7.428096E-1,-5.7564512E-2,-4.0931395E-1,1.7074212E-1,-1.0805378E-1,-2.04748E-1,-5.006056E-1,-5.1138085E-1,-7.266357E-1,-5.01896E-2,-3.971272E-1,2.4755165E-1,5.4506105E-1,-1.00414954E-1,2.9359272E-1,4.734267E-1,2.4700668E-1,1.5608871E-1,-2.3878947E-1,-5.00854E-1,-9.4930965E-1,-3.7849414E-1,-8.2035315E-1,-1.1012865E0,-4.8833552E-1,-8.48548E-1,-1.0657123E0,-3.1644794E-1,1.5154095E-1,-2.4755698E-1,-8.065791E-1,3.5043958E-1,-1.0513796E-1,-5.2818954E-1,-2.278076E-1,2.021242E-2,-2.713332E-2,-4.745257E-2,-5.606905E-3,-1.3526271E-2,-5.307802E-2,-5.389305E-2,5.757022E-3,-5.302566E-2,1.6790954E-2,-7.3658E-2,6.0960293E-2,5.8654E-2,-1.0969621E-2,-2.8675932E-2,-4.7928084E-2,3.9422855E-2,6.2909485E-3,5.9328485E-2,3.8772494E-2,-3.203613E-3,-3.545661E-2,4.8461404E-2,2.3002472E-2,2.3912901E-2,6.033596E-2,5.3342637E-2,1.7746555E-2,3.742204E-2,1.1790671E-2,-1.0603589E-2,-3.906694E-2,-9.550834E-2,-4.1194584E-2,-7.8871414E-2,-1.0812714E-1,-5.3129416E-2,-1.5982887E-2,-4.6334017E-2,-8.76449E-2,-6.08848E-3,-1.1745198E-1,-5.1824458E-2,7.663318E-2,-8.733409E-2,-2.6969621E-2,-1.17919974E-1,-1.0264941E-1,2.1202613E-2,-4.2907875E-2,6.838255E-2,4.6390132E-4,2.98735E-2,-7.216937E-2,-8.834329E-2,-4.9264345E-2,5.9920784E-2,-2.3870131E-2,1.8461682E-2,-1.7748097E-2,-3.4258157E-2,-7.938185E-2,-9.711134E-3,-6.574229E-2],"categories":[6,8,2,3,6,8,1,3,1,2,3,4,7,1,3,4,5,6,7,8,9,10,1,2,3,4,6,8,10,1,3,1,3,4,5,6,8],"categories_nodes":[3,4,14,26,29,42,48,55],"categories_segments":[0,2,6,8,13,22,29,31],"categories_sizes":[2,4,2,5,9,7,2,6],"default_left":[0,0,0,1,1,0,0,0,0,0,0,0,0,0,1,0,0,0,0,0,0,0,0,0,0,0,1,0,0,1,0,0,0,0,0,0,0,0,0,0,0,0,1,0,0,0,0,0,1,0,0,0,0,0,0,1,0,0,0,0,0,0,0,0,0,0,0,0,0,0,0,0,0,0,0,0,0,0,0,0,0,0,0,0,0,0,0,0,0,0,0,0,0,0,0,0,0,0,0,0,0,0,0,0,0,0,0,0,0,0,0,0,0,0,0,0,0,0,0,0,0,0,0,0,0,0,0],"id":12,"left_children":[1,3,5,7,9,11,13,15,17,19,21,23,25,27,29,31,33,35,37,39,41,43,45,47,49,51,53,55,57,59,61,63,65,67,69,71,73,75,77,79,81,83,85,87,89,91,93,95,97,99,101,103,105,107,109,111,113,115,117,119,121,123,125,-1,-1,-1,-1,-1,-1,-1,-1,-1,-1,-1,-1,-1,-1,-1,-1,-1,-1,-1,-1,-1,-1,-1,-1,-1,-1,-1,-1,-1,-1,-1,-1,-1,-1,-1,-1,-1,-1,-1,-1,-1,-1,-1,-1,-1,-1,-1,-1,-1,-1,-1,-1,-1,-1,-1,-1,-1,-1,-1,-1,-1,-1,-1,-1],"loss_changes":[2.4850618E3,2.1460027E3,1.647749E2,4.5741455E2,2.6820825E2,9.9240234E1,6.7246124E1,3.7635336E2,6.897095E1,1.6160352E2,9.888562E1,5.729547E1,2.6427856E1,9.29895E1,3.2768223E1,2.2863342E2,6.938519E1,1.2994629E1,4.8414795E1,1.3254626E2,8.61008E1,1.8264496E1,9.135695E1,1.959729E1,4.429425E1,1.5195633E1,9.695679E0,1.9460045E1,2.968097E1,1.0751889E1,1.0896927E1,7.155377E1,1.3052219E2,3.1647598E1,3.9296906E1,6.689514E0,9.210876E0,1.74928E1,2.9523132E1,5.370085E1,4.6442627E1,1.1119088E1,5.0387268E1,3.2298523E1,1.0704086E1,6.60845E1,1.27151985E1,4.7643433E0,9.424225E0,3.2194366E1,5.5727997E0,4.075226E0,6.967293E0,4.089142E0,2.90979E0,2.2876732E1,9.070807E0,2.85445E1,1.9777527E1,8.625389E0,1.0412099E1,1.490242E1,1.1381099E1,0E0,0E0,0E0,0E0,0E0,0E0,0E0,0E0,0E0,0E0,0E0,0E0,0E0,0E0,0E0,0E0,0E0,0E0,0E0,0E0,0E0,0E0,0E0,0E0,0E0,0E0,0E0,0E0,0E0,0E0,0E0,0E0,0E0,0E0,0E0,0E0,0E0,0E0,0E0,0E0,0E0,0E0,0E0,0E0,0E0,0E0,0E0,0E0,0E0,0E0,0E0,0E0,0E0,0E0,0E0,0E0,0E0,0E0,0E0,0E0,0E0,0E0,0E0,0E0],"parents":[2147483647,0,0,1,1,2,2,3,3,4,4,5,5,6,6,7,7,8,8,9,9,10,10,11,11,12,12,13,13,14,14,15,15,16,16,17,17,18,18,19,19,20,20,21,21,22,22,23,23,24,24,25,25,26,26,27,27,28,28,29,29,30,30,31,31,32,32,33,33,34,34,35,35,36,36,37,37,38,38,39,39,40,40,41,41,42,42,43,43,44,44,45,45,46,46,47,47,48,48,49,49,50,50,51,51,52,52,53,53,54,54,55,55,56,56,57,57,58,58,59,59,60,60,61,61,62,62],"right_children":[2,4,6,8,10,12,14,16,18,20,22,24,26,28,30,32,34,36,38,40,42,44,46,48,50,52,54,56,58,60,62,64,66,68,70,72,74,76,78,80,82,84,86,88,90,92,94,96,98,100,102,104,106,108,110,112,114,116,118,120,122,124,126,-1,-1,-1,-1,-1,-1,-1,-1,-1,-1,-1,-1,-1,-1,-1,-1,-1,-1,-1,-1,-1,-1,-1,-1,-1,-1,-1,-1,-1,-1,-1,-1,-1,-1,-1,-1,-1,-1,-1,-1,-1,-1,-1,-1,-1,-1,-1,-1,-1,-1,-1,-1,-1,-1,-1,-1,-1,-1,-1,-1,-1,-1,-1,-1],"split_conditions":[-1E0,2.06E2,3.8E2,1E-45,1E-45,1E0,1E0,5.4E1,2E0,-3.23E2,5E0,3E1,0E0,0E0,1E-45,-8.59E2,-8.27E2,-8.71E2,-1.1E3,3.64E2,3.8E2,8E1,-2.6E1,0E0,1.28E2,2E0,1E-45,7.3E2,3.87E2,1E-45,6.98E2,1E0,1E0,3.2E1,-6.8E1,2E1,1E0,3E0,4.4E1,-7.13E2,1.3E1,2.1E1,1E-45,4E0,1.499E1,-6.76E2,4.6E1,2E0,1E-45,4E0,0E0,3E0,5.92E2,3.71E2,6E0,1E-45,7.36E2,2E0,7.3E2,9.9E1,1.499E1,1E0,4.15E2,2.021242E-2,-2.713332E-2,-4.745257E-2,-5.606905E-3,-1.3526271E-2,-5.307802E-2,-5.389305E-2,5.757022E-3,-5.302566E-2,1.6790954E-2,-7.3658E-2,6.0960293E-2,5.8654E-2,-1.0969621E-2,-2.8675932E-2,-4.7928084E-2,3.9422855E-2,6.2909485E-3,5.9328485E-2,3.8772494E-2,-3.203613E-3,-3.545661E-2,4.8461404E-2,2.3002472E-2,2.3912901E-2,6.033596E-2,5.3342637E-2,1.7746555E-2,3.742204E-2,1.1790671E-2,-1.0603589E-2,-3.906694E-2,-9.550834E-2,-4.1194584E-2,-7.8871414E-2,-1.0812714E-1,-5.3129416E-2,-1.5982887E-2,-4.6334017E-2,-8.76449E-2,-6.08848E-3,-1.1745198E-1,-5.1824458E-2,7.663318E-2,-8.733409E-2,-2.6969621E-2,-1.17919974E-1,-1.0264941E-1,2.1202613E-2,-4.2907875E-2,6.838255E-2,4.6390132E-4,2.98735E-2,-7.216937E-2,-8.834329E-2,-4.9264345E-2,5.9920784E-2,-2.3870131E-2,1.8461682E-2,-1.7748097E-2,-3.4258157E-2,-7.938185E-2,-9.711134E-3,-6.574229E-2],"split_indices":[14,2,2,5,5,11,14,2,2,14,4,2,14,14,5,14,14,14,14,2,2,0,14,14,0,2,5,2,2,5,2,9,2,9,14,4,9,4,0,14,9,9,5,0,6,14,0,2,5,0,14,4,0,2,2,5,2,3,2,0,6,11,14,0,0,0,0,0,0,0,0,0,0,0,0,0,0,0,0,0,0,0,0,0,0,0,0,0,0,0,0,0,0,0,0,0,0,0,0,0,0,0,0,0,0,0,0,0,0,0,0,0,0,0,0,0,0,0,0,0,0,0,0,0,0,0,0],"split_type":[0,0,0,1,1,0,0,0,0,0,0,0,0,0,1,0,0,0,0,0,0,0,0,0,0,0,1,0,0,1,0,0,0,0,0,0,0,0,0,0,0,0,1,0,0,0,0,0,1,0,0,0,0,0,0,1,0,0,0,0,0,0,0,0,0,0,0,0,0,0,0,0,0,0,0,0,0,0,0,0,0,0,0,0,0,0,0,0,0,0,0,0,0,0,0,0,0,0,0,0,0,0,0,0,0,0,0,0,0,0,0,0,0,0,0,0,0,0,0,0,0,0,0,0,0,0,0],"sum_hessian":[4.9074625E4,4.324611E4,5.8285176E3,2.013939E4,2.3106717E4,3.3258933E3,2.5026243E3,1.5238023E4,4.9013677E3,1.2930333E4,1.0176384E4,1.8732963E3,1.4525969E3,1.4419819E3,1.0606423E3,1.2004346E4,3.2336782E3,1.1721611E3,3.7292065E3,8.13314E3,4.7971934E3,1.6058523E3,8.570532E3,6.106559E2,1.2626404E3,2.2750792E2,1.225089E3,4.968544E2,9.451275E2,5.510328E2,5.096096E2,5.1527295E3,6.8516157E3,1.3991401E3,1.834538E3,5.137737E2,6.5838745E2,4.5897977E2,3.2702268E3,1.9827605E3,6.1503794E3,6.394703E2,4.157723E3,1.0646907E3,5.411617E2,7.9388447E3,6.3168726E2,